<?xml version="1.0"?>
<opencv_storage>
<cascade>
  <stageType>BOOST</stageType>
  <featureType>HAAR</featureType>
  <height>20</height>
  <width>20</width>
  <stageParams>
    <boostType>GAB</boostType>
    <minHitRate>9.9500000476837158e-01</minHitRate>
    <maxFalseAlarm>5.0000000000000000e-01</maxFalseAlarm>
    <weightTrimRate>9.4999999999999996e-01</weightTrimRate>
    <maxDepth>1</maxDepth>
    <maxWeakCount>100</maxWeakCount></stageParams>
  <featureParams>
    <maxCatCount>0</maxCatCount>
    <featSize>1</featSize>
    <mode>BASIC</mode></featureParams>
  <stageNum>13</stageNum>
  <stages>
    <!-- stage 0 -->
    <_>
      <maxWeakCount>10</maxWeakCount>
      <stageThreshold>-1.7316461801528931e+00</stageThreshold>
      <weakClassifiers>
        <_>
          <internalNodes>
            0 -1 80 -1.1068306863307953e-01</internalNodes>
          <leafValues>
            9.3690246343612671e-02 -8.1164294481277466e-01</leafValues></_>
        <_>
          <internalNodes>
            0 -1 44 -5.3622074425220490e-02</internalNodes>
          <leafValues>
            2.4178326129913330e-01 -6.4081662893295288e-01</leafValues></_>
        <_>
          <internalNodes>
            0 -1 39 -4.3387133628129959e-02</internalNodes>
          <leafValues>
            -7.6185828447341919e-01 1.1139881610870361e-01</leafValues></_>
        <_>
          <internalNodes>
            0 -1 14 1.4060440659523010e-01</internalNodes>
          <leafValues>
            2.3345364630222321e-01 -5.3416687250137329e-01</leafValues></_>
        <_>
          <internalNodes>
            0 -1 28 -3.1797677278518677e-02</internalNodes>
          <leafValues>
            4.4985708594322205e-01 -2.6535457372665405e-01</leafValues></_>
        <_>
          <internalNodes>
            0 -1 58 -8.6898177862167358e-02</internalNodes>
          <leafValues>
            2.7917614579200745e-01 -3.9924293756484985e-01</leafValues></_>
        <_>
          <internalNodes>
            0 -1 148 -1.5170371159911156e-02</internalNodes>
          <leafValues>
            6.0935175418853760e-01 -1.4801122248172760e-01</leafValues></_>
        <_>
          <internalNodes>
            0 -1 167 -1.1764854192733765e-02</internalNodes>
          <leafValues>
            5.2085053920745850e-01 -1.6222232580184937e-01</leafValues></_>
        <_>
          <internalNodes>
            0 -1 180 -4.7104395925998688e-02</internalNodes>
          <leafValues>
            5.6134724617004395e-01 -1.4400698244571686e-01</leafValues></_>
        <_>
          <internalNodes>
            0 -1 218 -2.0483572036027908e-02</internalNodes>
          <leafValues>
            5.7424587011337280e-01 -1.2135376781225204e-01</leafValues></_></weakClassifiers></_>
    <!-- stage 1 -->
    <_>
      <maxWeakCount>13</maxWeakCount>
      <stageThreshold>-1.9286444187164307e+00</stageThreshold>
      <weakClassifiers>
        <_>
          <internalNodes>
            0 -1 84 -1.1327138543128967e-01</internalNodes>
          <leafValues>
            6.7010307312011719e-01 -7.6728659868240356e-01</leafValues></_>
        <_>
          <internalNodes>
            0 -1 62 -9.4053924083709717e-02</internalNodes>
          <leafValues>
            7.3395395278930664e-01 -3.4840878844261169e-01</leafValues></_>
        <_>
          <internalNodes>
            0 -1 45 -1.3695868849754333e-01</internalNodes>
          <leafValues>
            4.9917292594909668e-01 -2.4056057631969452e-01</leafValues></_>
        <_>
          <internalNodes>
            0 -1 48 -1.2849253416061401e-01</internalNodes>
          <leafValues>
            -7.9238945245742798e-01 1.5630263090133667e-01</leafValues></_>
        <_>
          <internalNodes>
            0 -1 17 -1.7462326586246490e-01</internalNodes>
          <leafValues>
            3.3912441134452820e-01 -3.1481632590293884e-01</leafValues></_>
        <_>
          <internalNodes>
            0 -1 60 2.1362593770027161e-01</internalNodes>
          <leafValues>
            1.5451772511005402e-01 -6.1937117576599121e-01</leafValues></_>
        <_>
          <internalNodes>
            0 -1 79 -7.1163713932037354e-02</internalNodes>
          <leafValues>
            7.1018236875534058e-01 -1.7682862281799316e-01</leafValues></_>
        <_>
          <internalNodes>
            0 -1 99 9.2685827985405922e-04</internalNodes>
          <leafValues>
            1.8723155558109283e-01 -5.3886741399765015e-01</leafValues></_>
        <_>
          <internalNodes>
            0 -1 99 -8.8110298383980989e-04</internalNodes>
          <leafValues>
            -6.0845303535461426e-01 2.0699743926525116e-01</leafValues></_>
        <_>
          <internalNodes>
            0 -1 125 8.6977913975715637e-02</internalNodes>
          <leafValues>
            1.2120673060417175e-01 -6.3557910919189453e-01</leafValues></_>
        <_>
          <internalNodes>
            0 -1 169 5.6692600250244141e-02</internalNodes>
          <leafValues>
            -1.3791511952877045e-01 6.6400742530822754e-01</leafValues></_>
        <_>
          <internalNodes>
            0 -1 128 -5.9756405651569366e-02</internalNodes>
          <leafValues>
            6.6267901659011841e-01 -1.3265804946422577e-01</leafValues></_>
        <_>
          <internalNodes>
            0 -1 56 -5.3239986300468445e-04</internalNodes>
          <leafValues>
            -4.8086261749267578e-01 1.9607637822628021e-01</leafValues></_></weakClassifiers></_>
    <!-- stage 2 -->
    <_>
      <maxWeakCount>12</maxWeakCount>
      <stageThreshold>-1.5600453615188599e+00</stageThreshold>
      <weakClassifiers>
        <_>
          <internalNodes>
            0 -1 158 -8.8442884385585785e-02</internalNodes>
          <leafValues>
            3.5907337069511414e-01 -7.7040445804595947e-01</leafValues></_>
        <_>
          <internalNodes>
            0 -1 103 -5.8751024305820465e-02</internalNodes>
          <leafValues>
            5.4555261135101318e-01 -3.5746976733207703e-01</leafValues></_>
        <_>
          <internalNodes>
            0 -1 76 -8.0291682388633490e-04</internalNodes>
          <leafValues>
            -5.7184886932373047e-01 1.9453534483909607e-01</leafValues></_>
        <_>
          <internalNodes>
            0 -1 131 -3.3198937773704529e-02</internalNodes>
          <leafValues>
            2.3007975518703461e-01 -4.5298853516578674e-01</leafValues></_>
        <_>
          <internalNodes>
            0 -1 76 6.8950623972341418e-04</internalNodes>
          <leafValues>
            2.4245323240756989e-01 -5.0993883609771729e-01</leafValues></_>
        <_>
          <internalNodes>
            0 -1 10 -4.7073666006326675e-02</internalNodes>
          <leafValues>
            5.1498878002166748e-01 -1.9453909993171692e-01</leafValues></_>
        <_>
          <internalNodes>
            0 -1 25 7.1347109973430634e-02</internalNodes>
          <leafValues>
            -1.4496408402919769e-01 7.0558971166610718e-01</leafValues></_>
        <_>
          <internalNodes>
            0 -1 123 6.8504974246025085e-02</internalNodes>
          <leafValues>
            -1.2900689244270325e-01 7.9693055152893066e-01</leafValues></_>
        <_>
          <internalNodes>
            0 -1 64 8.2964479923248291e-02</internalNodes>
          <leafValues>
            -5.6952841579914093e-02 7.6055598258972168e-01</leafValues></_>
        <_>
          <internalNodes>
            0 -1 68 9.9620193243026733e-02</internalNodes>
          <leafValues>
            -1.0102469474077225e-01 7.8215205669403076e-01</leafValues></_>
        <_>
          <internalNodes>
            0 -1 188 -1.3116723857820034e-03</internalNodes>
          <leafValues>
            -5.6242865324020386e-01 1.6010390222072601e-01</leafValues></_>
        <_>
          <internalNodes>
            0 -1 188 1.6975776525214314e-03</internalNodes>
          <leafValues>
            1.5438781678676605e-01 -6.3285583257675171e-01</leafValues></_></weakClassifiers></_>
    <!-- stage 3 -->
    <_>
      <maxWeakCount>22</maxWeakCount>
      <stageThreshold>-1.9921064376831055e+00</stageThreshold>
      <weakClassifiers>
        <_>
          <internalNodes>
            0 -1 138 -1.2161076068878174e-01</internalNodes>
          <leafValues>
            3.8548752665519714e-02 -7.8667342662811279e-01</leafValues></_>
        <_>
          <internalNodes>
            0 -1 71 7.9953536391258240e-02</internalNodes>
          <leafValues>
            -3.4789329767227173e-01 4.2546835541725159e-01</leafValues></_>
        <_>
          <internalNodes>
            0 -1 153 6.2869578599929810e-02</internalNodes>
          <leafValues>
            -1.3837638497352600e-01 6.0709100961685181e-01</leafValues></_>
        <_>
          <internalNodes>
            0 -1 81 -9.6395827829837799e-02</internalNodes>
          <leafValues>
            5.9576600790023804e-01 -9.5706388354301453e-02</leafValues></_>
        <_>
          <internalNodes>
            0 -1 77 -7.0503761526197195e-04</internalNodes>
          <leafValues>
            -4.1891938447952271e-01 1.7187514901161194e-01</leafValues></_>
        <_>
          <internalNodes>
            0 -1 1 -3.7416873965412378e-04</internalNodes>
          <leafValues>
            -4.0041485428810120e-01 1.6219371557235718e-01</leafValues></_>
        <_>
          <internalNodes>
            0 -1 1 7.4888369999825954e-04</internalNodes>
          <leafValues>
            1.7655006051063538e-01 -4.3323081731796265e-01</leafValues></_>
        <_>
          <internalNodes>
            0 -1 86 -4.2486637830734253e-02</internalNodes>
          <leafValues>
            5.8599162101745605e-01 -1.0527162998914719e-01</leafValues></_>
        <_>
          <internalNodes>
            0 -1 140 4.7177188098430634e-02</internalNodes>
          <leafValues>
            -1.3233545422554016e-01 5.3185236454010010e-01</leafValues></_>
        <_>
          <internalNodes>
            0 -1 307 -7.6153213158249855e-03</internalNodes>
          <leafValues>
            2.0937153697013855e-01 -3.1825721263885498e-01</leafValues></_>
        <_>
          <internalNodes>
            0 -1 304 1.7601534724235535e-02</internalNodes>
          <leafValues>
            -1.0598784685134888e-01 5.4527151584625244e-01</leafValues></_>
        <_>
          <internalNodes>
            0 -1 67 8.7441697716712952e-02</internalNodes>
          <leafValues>
            -8.9660763740539551e-02 6.5865409374237061e-01</leafValues></_>
        <_>
          <internalNodes>
            0 -1 176 7.9102400923147798e-04</internalNodes>
          <leafValues>
            1.2669996917247772e-01 -5.3019684553146362e-01</leafValues></_>
        <_>
          <internalNodes>
            0 -1 177 -1.4871743042021990e-03</internalNodes>
          <leafValues>
            -5.2792209386825562e-01 1.2671060860157013e-01</leafValues></_>
        <_>
          <internalNodes>
            0 -1 219 1.9222106784582138e-02</internalNodes>
          <leafValues>
            -1.7720802128314972e-01 3.8155117630958557e-01</leafValues></_>
        <_>
          <internalNodes>
            0 -1 3 -2.0842080935835838e-02</internalNodes>
          <leafValues>
            2.5636166334152222e-01 -2.5259765982627869e-01</leafValues></_>
        <_>
          <internalNodes>
            0 -1 196 3.2435100525617599e-02</internalNodes>
          <leafValues>
            -1.1485712230205536e-01 5.0144916772842407e-01</leafValues></_>
        <_>
          <internalNodes>
            0 -1 36 8.4854930639266968e-02</internalNodes>
          <leafValues>
            -9.7285382449626923e-02 6.5228235721588135e-01</leafValues></_>
        <_>
          <internalNodes>
            0 -1 287 -1.0760800214484334e-03</internalNodes>
          <leafValues>
            -4.3035906553268433e-01 1.3017952442169189e-01</leafValues></_>
        <_>
          <internalNodes>
            0 -1 208 4.9517691135406494e-02</internalNodes>
          <leafValues>
            -1.2643596529960632e-01 4.7132584452629089e-01</leafValues></_>
        <_>
          <internalNodes>
            0 -1 272 -2.2352540399879217e-03</internalNodes>
          <leafValues>
            -5.6564569473266602e-01 9.9735386669635773e-02</leafValues></_>
        <_>
          <internalNodes>
            0 -1 255 2.9882229864597321e-02</internalNodes>
          <leafValues>
            -1.1603007465600967e-01 5.4617416858673096e-01</leafValues></_></weakClassifiers></_>
    <!-- stage 4 -->
    <_>
      <maxWeakCount>18</maxWeakCount>
      <stageThreshold>-1.5758340358734131e+00</stageThreshold>
      <weakClassifiers>
        <_>
          <internalNodes>
            0 -1 157 -7.7701210975646973e-02</internalNodes>
          <leafValues>
            -3.2441473007202148e-01 -8.0120307207107544e-01</leafValues></_>
        <_>
          <internalNodes>
            0 -1 31 -1.6949128359556198e-02</internalNodes>
          <leafValues>
            3.4199568629264832e-01 -3.3134996891021729e-01</leafValues></_>
        <_>
          <internalNodes>
            0 -1 42 -1.0818095505237579e-01</internalNodes>
          <leafValues>
            2.0842941105365753e-01 -2.8170266747474670e-01</leafValues></_>
        <_>
          <internalNodes>
            0 -1 281 -1.3556670397520065e-02</internalNodes>
          <leafValues>
            4.9652752280235291e-01 -1.1793110519647598e-01</leafValues></_>
        <_>
          <internalNodes>
            0 -1 5 -2.8582163155078888e-02</internalNodes>
          <leafValues>
            2.4083511531352997e-01 -2.3613233864307404e-01</leafValues></_>
        <_>
          <internalNodes>
            0 -1 278 2.1469019353389740e-02</internalNodes>
          <leafValues>
            -6.2044195830821991e-02 6.0488313436508179e-01</leafValues></_>
        <_>
          <internalNodes>
            0 -1 195 -1.8906224519014359e-02</internalNodes>
          <leafValues>
            5.2397239208221436e-01 -9.2560492455959320e-02</leafValues></_>
        <_>
          <internalNodes>
            0 -1 117 -1.0117301717400551e-03</internalNodes>
          <leafValues>
            -4.3659505248069763e-01 1.1437949538230896e-01</leafValues></_>
        <_>
          <internalNodes>
            0 -1 178 -1.8699532374739647e-02</internalNodes>
          <leafValues>
            5.2336394786834717e-01 -1.1358343064785004e-01</leafValues></_>
        <_>
          <internalNodes>
            0 -1 116 6.0968496836721897e-04</internalNodes>
          <leafValues>
            1.3873754441738129e-01 -4.2961773276329041e-01</leafValues></_>
        <_>
          <internalNodes>
            0 -1 102 -2.3759141564369202e-02</internalNodes>
          <leafValues>
            4.4870215654373169e-01 -1.1747048795223236e-01</leafValues></_>
        <_>
          <internalNodes>
            0 -1 310 -5.2139504987280816e-05</internalNodes>
          <leafValues>
            2.0792144536972046e-01 -2.3425672948360443e-01</leafValues></_>
        <_>
          <internalNodes>
            0 -1 34 -3.0833084136247635e-02</internalNodes>
          <leafValues>
            4.0219274163246155e-01 -1.1324214190244675e-01</leafValues></_>
        <_>
          <internalNodes>
            0 -1 53 -7.0887267589569092e-02</internalNodes>
          <leafValues>
            -7.4194121360778809e-01 6.8026445806026459e-02</leafValues></_>
        <_>
          <internalNodes>
            0 -1 38 1.3607127591967583e-02</internalNodes>
          <leafValues>
            -1.0047396272420883e-01 5.0843507051467896e-01</leafValues></_>
        <_>
          <internalNodes>
            0 -1 283 -3.7177457124926150e-04</internalNodes>
          <leafValues>
            2.3076337575912476e-01 -2.0831656455993652e-01</leafValues></_>
        <_>
          <internalNodes>
            0 -1 137 -6.8451516563072801e-04</internalNodes>
          <leafValues>
            -4.3614578247070312e-01 1.1533617228269577e-01</leafValues></_>
        <_>
          <internalNodes>
            0 -1 141 1.7563197761774063e-02</internalNodes>
          <leafValues>
            -8.2554265856742859e-02 5.8186489343643188e-01</leafValues></_></weakClassifiers></_>
    <!-- stage 5 -->
    <_>
      <maxWeakCount>17</maxWeakCount>
      <stageThreshold>-1.8501102924346924e+00</stageThreshold>
      <weakClassifiers>
        <_>
          <internalNodes>
            0 -1 105 1.3346239924430847e-02</internalNodes>
          <leafValues>
            -7.8233766555786133e-01 -1.4126394689083099e-01</leafValues></_>
        <_>
          <internalNodes>
            0 -1 19 -7.1381982415914536e-03</internalNodes>
          <leafValues>
            2.7965974807739258e-01 -4.1586831212043762e-01</leafValues></_>
        <_>
          <internalNodes>
            0 -1 130 9.3923434615135193e-03</internalNodes>
          <leafValues>
            -1.9216743111610413e-01 4.8949435353279114e-01</leafValues></_>
        <_>
          <internalNodes>
            0 -1 148 1.2355390936136246e-02</internalNodes>
          <leafValues>
            -1.4085058867931366e-01 5.3167355060577393e-01</leafValues></_>
        <_>
          <internalNodes>
            0 -1 165 7.4504241347312927e-03</internalNodes>
          <leafValues>
            -1.7075312137603760e-01 4.9501439929008484e-01</leafValues></_>
        <_>
          <internalNodes>
            0 -1 207 -6.2383674085140228e-03</internalNodes>
          <leafValues>
            4.3291905522346497e-01 -1.5810196101665497e-01</leafValues></_>
        <_>
          <internalNodes>
            0 -1 230 1.3211817480623722e-02</internalNodes>
          <leafValues>
            1.1851913481950760e-01 -6.0028177499771118e-01</leafValues></_>
        <_>
          <internalNodes>
            0 -1 221 -9.3709453940391541e-03</internalNodes>
          <leafValues>
            5.1553237438201904e-01 -1.0851627588272095e-01</leafValues></_>
        <_>
          <internalNodes>
            0 -1 118 -6.3992984592914581e-02</internalNodes>
          <leafValues>
            3.1734082102775574e-01 -1.9598339498043060e-01</leafValues></_>
        <_>
          <internalNodes>
            0 -1 257 -2.0331844687461853e-02</internalNodes>
          <leafValues>
            5.6833887100219727e-01 -1.1436537653207779e-01</leafValues></_>
        <_>
          <internalNodes>
            0 -1 262 7.8840339556336403e-03</internalNodes>
          <leafValues>
            -1.5875408053398132e-01 3.7081444263458252e-01</leafValues></_>
        <_>
          <internalNodes>
            0 -1 159 -1.1050513386726379e-01</internalNodes>
          <leafValues>
            1.8953397870063782e-01 -3.0966824293136597e-01</leafValues></_>
        <_>
          <internalNodes>
            0 -1 197 -5.2279827650636435e-04</internalNodes>
          <leafValues>
            3.3301633596420288e-01 -1.5865531563758850e-01</leafValues></_>
        <_>
          <internalNodes>
            0 -1 30 9.7945984452962875e-03</internalNodes>
          <leafValues>
            -1.0681246221065521e-01 4.4288283586502075e-01</leafValues></_>
        <_>
          <internalNodes>
            0 -1 305 1.5450660139322281e-03</internalNodes>
          <leafValues>
            -1.5507563948631287e-01 2.8877037763595581e-01</leafValues></_>
        <_>
          <internalNodes>
            0 -1 126 2.4792436510324478e-02</internalNodes>
          <leafValues>
            1.3252341747283936e-01 -4.6701297163963318e-01</leafValues></_>
        <_>
          <internalNodes>
            0 -1 35 -5.5958375334739685e-02</internalNodes>
          <leafValues>
            -5.9649026393890381e-01 5.4230604320764542e-02</leafValues></_></weakClassifiers></_>
    <!-- stage 6 -->
    <_>
      <maxWeakCount>19</maxWeakCount>
      <stageThreshold>-1.9225820302963257e+00</stageThreshold>
      <weakClassifiers>
        <_>
          <internalNodes>
            0 -1 106 2.3551773279905319e-02</internalNodes>
          <leafValues>
            -7.6456129550933838e-01 7.2100311517715454e-02</leafValues></_>
        <_>
          <internalNodes>
            0 -1 87 1.3665580190718174e-02</internalNodes>
          <leafValues>
            -3.5033756494522095e-01 4.5826679468154907e-01</leafValues></_>
        <_>
          <internalNodes>
            0 -1 90 -9.1929454356431961e-03</internalNodes>
          <leafValues>
            4.5592898130416870e-01 -1.8770000338554382e-01</leafValues></_>
        <_>
          <internalNodes>
            0 -1 209 -1.6074024140834808e-02</internalNodes>
          <leafValues>
            5.4752349853515625e-01 -1.3793069124221802e-01</leafValues></_>
        <_>
          <internalNodes>
            0 -1 211 1.2679717503488064e-02</internalNodes>
          <leafValues>
            -1.1058849841356277e-01 6.1597251892089844e-01</leafValues></_>
        <_>
          <internalNodes>
            0 -1 298 -1.5232087112963200e-02</internalNodes>
          <leafValues>
            5.4813468456268311e-01 -1.0437598824501038e-01</leafValues></_>
        <_>
          <internalNodes>
            0 -1 299 1.0210931301116943e-02</internalNodes>
          <leafValues>
            -1.2751778960227966e-01 5.1482099294662476e-01</leafValues></_>
        <_>
          <internalNodes>
            0 -1 15 -7.6697327196598053e-02</internalNodes>
          <leafValues>
            1.4356860518455505e-01 -4.4336202740669250e-01</leafValues></_>
        <_>
          <internalNodes>
            0 -1 268 1.2208601459860802e-02</internalNodes>
          <leafValues>
            -1.2438508868217468e-01 4.2994803190231323e-01</leafValues></_>
        <_>
          <internalNodes>
            0 -1 268 -1.1330332607030869e-02</internalNodes>
          <leafValues>
            4.6837073564529419e-01 -1.5014591813087463e-01</leafValues></_>
        <_>
          <internalNodes>
            0 -1 51 -7.3329940438270569e-02</internalNodes>
          <leafValues>
            -6.8925237655639648e-01 8.4701284766197205e-02</leafValues></_>
        <_>
          <internalNodes>
            0 -1 193 -2.4395648390054703e-02</internalNodes>
          <leafValues>
            3.6650931835174561e-01 -1.4586506783962250e-01</leafValues></_>
        <_>
          <internalNodes>
            0 -1 142 2.8137112967669964e-03</internalNodes>
          <leafValues>
            -1.4687608182430267e-01 3.6131170392036438e-01</leafValues></_>
        <_>
          <internalNodes>
            0 -1 122 -8.8986027985811234e-03</internalNodes>
          <leafValues>
            4.2310568690299988e-01 -1.3201138377189636e-01</leafValues></_>
        <_>
          <internalNodes>
            0 -1 234 3.7230164743959904e-03</internalNodes>
          <leafValues>
            -1.3209205865859985e-01 3.6697131395339966e-01</leafValues></_>
        <_>
          <internalNodes>
            0 -1 174 -4.5601781457662582e-03</internalNodes>
          <leafValues>
            3.2739248871803284e-01 -1.4818479120731354e-01</leafValues></_>
        <_>
          <internalNodes>
            0 -1 100 -4.1907376050949097e-01</internalNodes>
          <leafValues>
            3.2370546460151672e-01 -1.4672353863716125e-01</leafValues></_>
        <_>
          <internalNodes>
            0 -1 163 1.0582380928099155e-02</internalNodes>
          <leafValues>
            -1.6599531471729279e-01 3.6225491762161255e-01</leafValues></_>
        <_>
          <internalNodes>
            0 -1 133 9.4528533518314362e-03</internalNodes>
          <leafValues>
            -1.0110682249069214e-01 4.3326830863952637e-01</leafValues></_></weakClassifiers></_>
    <!-- stage 7 -->
    <_>
      <maxWeakCount>29</maxWeakCount>
      <stageThreshold>-1.8594025373458862e+00</stageThreshold>
      <weakClassifiers>
        <_>
          <internalNodes>
            0 -1 82 -1.4397174119949341e-01</internalNodes>
          <leafValues>
            1.0052909702062607e-01 -7.3993808031082153e-01</leafValues></_>
        <_>
          <internalNodes>
            0 -1 29 -9.1909117996692657e-02</internalNodes>
          <leafValues>
            3.8822343945503235e-01 -2.7825954556465149e-01</leafValues></_>
        <_>
          <internalNodes>
            0 -1 37 -1.3683579862117767e-01</internalNodes>
          <leafValues>
            7.1456980705261230e-01 -6.8411715328693390e-02</leafValues></_>
        <_>
          <internalNodes>
            0 -1 191 -5.3010635077953339e-02</internalNodes>
          <leafValues>
            4.0042859315872192e-01 -1.1348446458578110e-01</leafValues></_>
        <_>
          <internalNodes>
            0 -1 267 2.1989639848470688e-02</internalNodes>
          <leafValues>
            -9.9073097109794617e-02 4.3297296762466431e-01</leafValues></_>
        <_>
          <internalNodes>
            0 -1 137 7.7130983117967844e-04</internalNodes>
          <leafValues>
            1.1273200064897537e-01 -4.1543498635292053e-01</leafValues></_>
        <_>
          <internalNodes>
            0 -1 171 1.6856044530868530e-02</internalNodes>
          <leafValues>
            -7.6848663389682770e-02 4.1018834710121155e-01</leafValues></_>
        <_>
          <internalNodes>
            0 -1 182 -2.2159513086080551e-02</internalNodes>
          <leafValues>
            -5.9104591608047485e-01 7.2664514183998108e-02</leafValues></_>
        <_>
          <internalNodes>
            0 -1 182 1.4870427548885345e-02</internalNodes>
          <leafValues>
            8.7262153625488281e-02 -4.9849233031272888e-01</leafValues></_>
        <_>
          <internalNodes>
            0 -1 23 -1.3401916250586510e-02</internalNodes>
          <leafValues>
            4.1917330026626587e-01 -9.2632129788398743e-02</leafValues></_>
        <_>
          <internalNodes>
            0 -1 147 -1.6441904008388519e-02</internalNodes>
          <leafValues>
            3.6435917019844055e-01 -1.0963243246078491e-01</leafValues></_>
        <_>
          <internalNodes>
            0 -1 161 -1.2287508696317673e-02</internalNodes>
          <leafValues>
            4.5213440060615540e-01 -9.8220713436603546e-02</leafValues></_>
        <_>
          <internalNodes>
            0 -1 99 4.9196917098015547e-04</internalNodes>
          <leafValues>
            1.2214130163192749e-01 -3.7404239177703857e-01</leafValues></_>
        <_>
          <internalNodes>
            0 -1 98 -2.1191546693444252e-04</internalNodes>
          <leafValues>
            -3.4331089258193970e-01 1.0716968774795532e-01</leafValues></_>
        <_>
          <internalNodes>
            0 -1 162 2.7931821532547474e-03</internalNodes>
          <leafValues>
            -1.6405121982097626e-01 2.3996232450008392e-01</leafValues></_>
        <_>
          <internalNodes>
            0 -1 264 2.0747543312609196e-03</internalNodes>
          <leafValues>
            -1.4686027169227600e-01 2.4977236986160278e-01</leafValues></_>
        <_>
          <internalNodes>
            0 -1 266 1.2606611475348473e-02</internalNodes>
          <leafValues>
            -9.7194939851760864e-02 4.2125734686851501e-01</leafValues></_>
        <_>
          <internalNodes>
            0 -1 93 -3.1387898325920105e-01</internalNodes>
          <leafValues>
            3.6945983767509460e-01 -1.1176903545856476e-01</leafValues></_>
        <_>
          <internalNodes>
            0 -1 265 -3.4156657755374908e-02</internalNodes>
          <leafValues>
            6.2162822484970093e-01 -6.3552990555763245e-02</leafValues></_>
        <_>
          <internalNodes>
            0 -1 275 3.8339314050972462e-03</internalNodes>
          <leafValues>
            -1.2957429885864258e-01 2.8571975231170654e-01</leafValues></_>
        <_>
          <internalNodes>
            0 -1 74 3.3486195025034249e-04</internalNodes>
          <leafValues>
            -1.9953195750713348e-01 1.9978828728199005e-01</leafValues></_>
        <_>
          <internalNodes>
            0 -1 120 -1.3122087717056274e-01</internalNodes>
          <leafValues>
            4.7443762421607971e-01 -8.8886052370071411e-02</leafValues></_>
        <_>
          <internalNodes>
            0 -1 297 6.0640159063041210e-03</internalNodes>
          <leafValues>
            -1.0389052331447601e-01 3.8545423746109009e-01</leafValues></_>
        <_>
          <internalNodes>
            0 -1 164 -4.8457393422722816e-03</internalNodes>
          <leafValues>
            3.0892202258110046e-01 -1.3174359500408173e-01</leafValues></_>
        <_>
          <internalNodes>
            0 -1 251 1.4535188674926758e-03</internalNodes>
          <leafValues>
            -1.6296038031578064e-01 2.3877145349979401e-01</leafValues></_>
        <_>
          <internalNodes>
            0 -1 50 -3.2226545736193657e-03</internalNodes>
          <leafValues>
            -8.1391263008117676e-01 4.9066100269556046e-02</leafValues></_>
        <_>
          <internalNodes>
            0 -1 112 -5.6838601827621460e-02</internalNodes>
          <leafValues>
            3.7157034873962402e-01 -1.1146689951419830e-01</leafValues></_>
        <_>
          <internalNodes>
            0 -1 134 -9.8596923053264618e-03</internalNodes>
          <leafValues>
            2.6962080597877502e-01 -1.4593715965747833e-01</leafValues></_>
        <_>
          <internalNodes>
            0 -1 0 -2.2815323609393090e-04</internalNodes>
          <leafValues>
            -3.6463424563407898e-01 1.1017943918704987e-01</leafValues></_></weakClassifiers></_>
    <!-- stage 8 -->
    <_>
      <maxWeakCount>31</maxWeakCount>
      <stageThreshold>-1.6080592870712280e+00</stageThreshold>
      <weakClassifiers>
        <_>
          <internalNodes>
            0 -1 156 -6.6273175179958344e-02</internalNodes>
          <leafValues>
            -2.7976191043853760e-01 -7.3889434337615967e-01</leafValues></_>
        <_>
          <internalNodes>
            0 -1 69 -1.3332802802324295e-02</internalNodes>
          <leafValues>
            1.5843871235847473e-01 -2.9050198197364807e-01</leafValues></_>
        <_>
          <internalNodes>
            0 -1 16 -1.6687968373298645e-01</internalNodes>
          <leafValues>
            1.4186398684978485e-01 -3.0949360132217407e-01</leafValues></_>
        <_>
          <internalNodes>
            0 -1 32 2.0403224229812622e-01</internalNodes>
          <leafValues>
            -1.3012024760246277e-01 2.8077450394630432e-01</leafValues></_>
        <_>
          <internalNodes>
            0 -1 223 2.4817250669002533e-02</internalNodes>
          <leafValues>
            -7.1387559175491333e-02 4.8495802283287048e-01</leafValues></_>
        <_>
          <internalNodes>
            0 -1 296 6.3477950170636177e-03</internalNodes>
          <leafValues>
            4.8996604979038239e-02 -7.6708453893661499e-01</leafValues></_>
        <_>
          <internalNodes>
            0 -1 306 4.3101729825139046e-03</internalNodes>
          <leafValues>
            -1.4889220893383026e-01 2.2688499093055725e-01</leafValues></_>
        <_>
          <internalNodes>
            0 -1 199 1.2697136960923672e-02</internalNodes>
          <leafValues>
            -6.2286660075187683e-02 3.9619851112365723e-01</leafValues></_>
        <_>
          <internalNodes>
            0 -1 186 1.5026664361357689e-02</internalNodes>
          <leafValues>
            4.0834564715623856e-02 -6.9048655033111572e-01</leafValues></_>
        <_>
          <internalNodes>
            0 -1 239 1.3114331290125847e-02</internalNodes>
          <leafValues>
            -9.6304997801780701e-02 3.2638868689537048e-01</leafValues></_>
        <_>
          <internalNodes>
            0 -1 205 2.7084251865744591e-02</internalNodes>
          <leafValues>
            3.9110489189624786e-02 -7.0770651102066040e-01</leafValues></_>
        <_>
          <internalNodes>
            0 -1 231 2.7420867234468460e-02</internalNodes>
          <leafValues>
            5.5362377315759659e-02 -5.7177275419235229e-01</leafValues></_>
        <_>
          <internalNodes>
            0 -1 250 1.5423767268657684e-02</internalNodes>
          <leafValues>
            -8.4353037178516388e-02 4.4544407725334167e-01</leafValues></_>
        <_>
          <internalNodes>
            0 -1 190 -2.4339297669939697e-04</internalNodes>
          <leafValues>
            1.4679527282714844e-01 -2.1795801818370819e-01</leafValues></_>
        <_>
          <internalNodes>
            0 -1 254 1.3977335765957832e-03</internalNodes>
          <leafValues>
            -1.5865726768970490e-01 1.9818973541259766e-01</leafValues></_>
        <_>
          <internalNodes>
            0 -1 189 4.3573267757892609e-03</internalNodes>
          <leafValues>
            4.8632305115461349e-02 -6.0464221239089966e-01</leafValues></_>
        <_>
          <internalNodes>
            0 -1 222 3.0803579837083817e-02</internalNodes>
          <leafValues>
            3.3630639314651489e-02 -7.7050018310546875e-01</leafValues></_>
        <_>
          <internalNodes>
            0 -1 227 -1.5395427122712135e-02</internalNodes>
          <leafValues>
            -5.9028208255767822e-01 4.4708419591188431e-02</leafValues></_>
        <_>
          <internalNodes>
            0 -1 27 -1.0624324902892113e-02</internalNodes>
          <leafValues>
            2.2835530340671539e-01 -1.4056809246540070e-01</leafValues></_>
        <_>
          <internalNodes>
            0 -1 246 5.2434719691518694e-05</internalNodes>
          <leafValues>
            -1.8839497864246368e-01 1.6593083739280701e-01</leafValues></_>
        <_>
          <internalNodes>
            0 -1 76 -2.6735523715615273e-03</internalNodes>
          <leafValues>
            -6.4981466531753540e-01 4.3008495122194290e-02</leafValues></_>
        <_>
          <internalNodes>
            0 -1 4 1.7149455845355988e-02</internalNodes>
          <leafValues>
            -9.6438631415367126e-02 3.4477943181991577e-01</leafValues></_>
        <_>
          <internalNodes>
            0 -1 61 5.3743860917165875e-05</internalNodes>
          <leafValues>
            -1.5809981524944305e-01 2.0685231685638428e-01</leafValues></_>
        <_>
          <internalNodes>
            0 -1 75 6.3388643320649862e-04</internalNodes>
          <leafValues>
            9.3210630118846893e-02 -3.7745702266693115e-01</leafValues></_>
        <_>
          <internalNodes>
            0 -1 59 -4.4514868932310492e-05</internalNodes>
          <leafValues>
            1.8724855780601501e-01 -1.6597671806812286e-01</leafValues></_>
        <_>
          <internalNodes>
            0 -1 292 -5.7238888985011727e-05</internalNodes>
          <leafValues>
            1.8106040358543396e-01 -1.8040376901626587e-01</leafValues></_>
        <_>
          <internalNodes>
            0 -1 279 -1.2717401608824730e-02</internalNodes>
          <leafValues>
            2.9142451286315918e-01 -1.2538206577301025e-01</leafValues></_>
        <_>
          <internalNodes>
            0 -1 300 -1.0997450444847345e-03</internalNodes>
          <leafValues>
            1.2711185216903687e-01 -2.7872240543365479e-01</leafValues></_>
        <_>
          <internalNodes>
            0 -1 200 4.8297485336661339e-03</internalNodes>
          <leafValues>
            5.3385134786367416e-02 -6.3154494762420654e-01</leafValues></_>
        <_>
          <internalNodes>
            0 -1 210 2.0801430568099022e-02</internalNodes>
          <leafValues>
            -8.8273480534553528e-02 4.1910272836685181e-01</leafValues></_>
        <_>
          <internalNodes>
            0 -1 136 -4.3296138755977154e-04</internalNodes>
          <leafValues>
            2.1212300658226013e-01 -1.5255239605903625e-01</leafValues></_></weakClassifiers></_>
    <!-- stage 9 -->
    <_>
      <maxWeakCount>35</maxWeakCount>
      <stageThreshold>-1.7209668159484863e+00</stageThreshold>
      <weakClassifiers>
        <_>
          <internalNodes>
            0 -1 293 -2.9396630823612213e-02</internalNodes>
          <leafValues>
            -1.5789473056793213e-01 -7.4165242910385132e-01</leafValues></_>
        <_>
          <internalNodes>
            0 -1 220 1.7664635553956032e-02</internalNodes>
          <leafValues>
            -3.0283358693122864e-01 2.3999610543251038e-01</leafValues></_>
        <_>
          <internalNodes>
            0 -1 303 7.0372559130191803e-03</internalNodes>
          <leafValues>
            -1.5725061297416687e-01 2.9699856042861938e-01</leafValues></_>
        <_>
          <internalNodes>
            0 -1 233 1.5691779553890228e-02</internalNodes>
          <leafValues>
            -9.2180222272872925e-02 4.2829093337059021e-01</leafValues></_>
        <_>
          <internalNodes>
            0 -1 170 -9.4336299225687981e-03</internalNodes>
          <leafValues>
            3.3159166574478149e-01 -9.2549949884414673e-02</leafValues></_>
        <_>
          <internalNodes>
            0 -1 168 6.0246931388974190e-03</internalNodes>
          <leafValues>
            -1.2380302697420120e-01 2.9942467808723450e-01</leafValues></_>
        <_>
          <internalNodes>
            0 -1 54 -1.7455548048019409e-02</internalNodes>
          <leafValues>
            -6.4532089233398438e-01 5.0015036016702652e-02</leafValues></_>
        <_>
          <internalNodes>
            0 -1 26 -9.0879965573549271e-03</internalNodes>
          <leafValues>
            2.4905551970005035e-01 -1.1949697881937027e-01</leafValues></_>
        <_>
          <internalNodes>
            0 -1 107 -2.3362096399068832e-02</internalNodes>
          <leafValues>
            -4.6672874689102173e-01 6.6480830311775208e-02</leafValues></_>
        <_>
          <internalNodes>
            0 -1 92 2.8147257864475250e-02</internalNodes>
          <leafValues>
            1.0102461278438568e-01 -3.8034996390342712e-01</leafValues></_>
        <_>
          <internalNodes>
            0 -1 238 -6.1657731421291828e-03</internalNodes>
          <leafValues>
            2.9163157939910889e-01 -1.0809793323278427e-01</leafValues></_>
        <_>
          <internalNodes>
            0 -1 301 1.1028295382857323e-02</internalNodes>
          <leafValues>
            5.8917101472616196e-02 -5.2738302946090698e-01</leafValues></_>
        <_>
          <internalNodes>
            0 -1 240 7.6210945844650269e-03</internalNodes>
          <leafValues>
            -1.1821530759334564e-01 2.5953742861747742e-01</leafValues></_>
        <_>
          <internalNodes>
            0 -1 129 -1.5759458765387535e-02</internalNodes>
          <leafValues>
            3.6735501885414124e-01 -9.5762401819229126e-02</leafValues></_>
        <_>
          <internalNodes>
            0 -1 98 -3.7393750972114503e-04</internalNodes>
          <leafValues>
            -3.7256059050559998e-01 8.8347010314464569e-02</leafValues></_>
        <_>
          <internalNodes>
            0 -1 217 -2.9105506837368011e-03</internalNodes>
          <leafValues>
            3.3475786447525024e-01 -1.0151110589504242e-01</leafValues></_>
        <_>
          <internalNodes>
            0 -1 76 -1.8629300757311285e-04</internalNodes>
          <leafValues>
            -2.8617626428604126e-01 1.1550834029912949e-01</leafValues></_>
        <_>
          <internalNodes>
            0 -1 241 8.2094753161072731e-03</internalNodes>
          <leafValues>
            -1.1001495271921158e-01 2.9836052656173706e-01</leafValues></_>
        <_>
          <internalNodes>
            0 -1 18 -4.2282514274120331e-02</internalNodes>
          <leafValues>
            3.6889448761940002e-01 -8.4978327155113220e-02</leafValues></_>
        <_>
          <internalNodes>
            0 -1 124 1.2647298164665699e-02</internalNodes>
          <leafValues>
            -1.1540215462446213e-01 2.7983745932579041e-01</leafValues></_>
        <_>
          <internalNodes>
            0 -1 228 7.6627843081951141e-03</internalNodes>
          <leafValues>
            -1.7993880808353424e-01 1.7883387207984924e-01</leafValues></_>
        <_>
          <internalNodes>
            0 -1 113 7.9905176535248756e-03</internalNodes>
          <leafValues>
            -9.9644295871257782e-02 3.0744415521621704e-01</leafValues></_>
        <_>
          <internalNodes>
            0 -1 289 -3.1034838408231735e-02</internalNodes>
          <leafValues>
            4.8670005798339844e-01 -6.0294885188341141e-02</leafValues></_>
        <_>
          <internalNodes>
            0 -1 248 4.0937434881925583e-02</internalNodes>
          <leafValues>
            6.2511213123798370e-02 -5.0700783729553223e-01</leafValues></_>
        <_>
          <internalNodes>
            0 -1 225 3.1481660902500153e-02</internalNodes>
          <leafValues>
            3.8753632456064224e-02 -6.0058933496475220e-01</leafValues></_>
        <_>
          <internalNodes>
            0 -1 274 -5.2872952073812485e-03</internalNodes>
          <leafValues>
            2.7290767431259155e-01 -1.0522776842117310e-01</leafValues></_>
        <_>
          <internalNodes>
            0 -1 270 1.8071193248033524e-02</internalNodes>
          <leafValues>
            -9.9692113697528839e-02 2.8976103663444519e-01</leafValues></_>
        <_>
          <internalNodes>
            0 -1 212 6.7886011675000191e-03</internalNodes>
          <leafValues>
            1.0381464660167694e-01 -2.7523422241210938e-01</leafValues></_>
        <_>
          <internalNodes>
            0 -1 284 -6.0604615136981010e-03</internalNodes>
          <leafValues>
            1.3961043953895569e-01 -2.1765939891338348e-01</leafValues></_>
        <_>
          <internalNodes>
            0 -1 206 -4.0170274674892426e-02</internalNodes>
          <leafValues>
            3.0526161193847656e-01 -1.0215485841035843e-01</leafValues></_>
        <_>
          <internalNodes>
            0 -1 261 -4.1484618559479713e-03</internalNodes>
          <leafValues>
            -8.2869553565979004e-01 3.2302990555763245e-02</leafValues></_>
        <_>
          <internalNodes>
            0 -1 280 -6.6568115726113319e-03</internalNodes>
          <leafValues>
            2.3407632112503052e-01 -1.1456851661205292e-01</leafValues></_>
        <_>
          <internalNodes>
            0 -1 115 -9.9096223711967468e-03</internalNodes>
          <leafValues>
            -3.4141677618026733e-01 7.6444804668426514e-02</leafValues></_>
        <_>
          <internalNodes>
            0 -1 13 -7.0912227034568787e-02</internalNodes>
          <leafValues>
            2.7590295672416687e-01 -9.5649018883705139e-02</leafValues></_>
        <_>
          <internalNodes>
            0 -1 244 3.0890493653714657e-03</internalNodes>
          <leafValues>
            4.3144997209310532e-02 -6.3424158096313477e-01</leafValues></_></weakClassifiers></_>
    <!-- stage 10 -->
    <_>
      <maxWeakCount>39</maxWeakCount>
      <stageThreshold>-1.6962274312973022e+00</stageThreshold>
      <weakClassifiers>
        <_>
          <internalNodes>
            0 -1 63 -5.4615505039691925e-02</internalNodes>
          <leafValues>
            -7.5949363410472870e-02 -7.2718673944473267e-01</leafValues></_>
        <_>
          <internalNodes>
            0 -1 57 -7.8316248953342438e-02</internalNodes>
          <leafValues>
            1.5526486933231354e-01 -2.9907462000846863e-01</leafValues></_>
        <_>
          <internalNodes>
            0 -1 149 -1.2905228883028030e-02</internalNodes>
          <leafValues>
            3.6061125993728638e-01 -1.0310581326484680e-01</leafValues></_>
        <_>
          <internalNodes>
            0 -1 127 1.4937888830900192e-02</internalNodes>
          <leafValues>
            -1.1496955156326294e-01 3.1011456251144409e-01</leafValues></_>
        <_>
          <internalNodes>
            0 -1 260 5.9710439294576645e-02</internalNodes>
          <leafValues>
            -8.3021990954875946e-02 3.8318580389022827e-01</leafValues></_>
        <_>
          <internalNodes>
            0 -1 65 1.9540376961231232e-02</internalNodes>
          <leafValues>
            -7.9335004091262817e-02 3.7444889545440674e-01</leafValues></_>
        <_>
          <internalNodes>
            0 -1 114 -2.3905202746391296e-02</internalNodes>
          <leafValues>
            3.6057907342910767e-01 -7.1816772222518921e-02</leafValues></_>
        <_>
          <internalNodes>
            0 -1 215 1.2190323323011398e-03</internalNodes>
          <leafValues>
            7.5128771364688873e-02 -3.7275883555412292e-01</leafValues></_>
        <_>
          <internalNodes>
            0 -1 215 -3.9089980418793857e-04</internalNodes>
          <leafValues>
            -2.4972540140151978e-01 1.2582145631313324e-01</leafValues></_>
        <_>
          <internalNodes>
            0 -1 119 5.3828692762181163e-04</internalNodes>
          <leafValues>
            -1.3508559763431549e-01 1.9060324132442474e-01</leafValues></_>
        <_>
          <internalNodes>
            0 -1 198 -2.4238500744104385e-02</internalNodes>
          <leafValues>
            -6.2468129396438599e-01 4.3880864977836609e-02</leafValues></_>
        <_>
          <internalNodes>
            0 -1 269 -5.6497836485505104e-03</internalNodes>
          <leafValues>
            2.4832588434219360e-01 -1.1393208056688309e-01</leafValues></_>
        <_>
          <internalNodes>
            0 -1 271 5.1543116569519043e-03</internalNodes>
          <leafValues>
            -1.2785768508911133e-01 2.2074797749519348e-01</leafValues></_>
        <_>
          <internalNodes>
            0 -1 214 -1.4663212001323700e-02</internalNodes>
          <leafValues>
            2.0902813971042633e-01 -1.3163860142230988e-01</leafValues></_>
        <_>
          <internalNodes>
            0 -1 172 -4.8093304940266535e-05</internalNodes>
          <leafValues>
            1.7453339695930481e-01 -1.5309128165245056e-01</leafValues></_>
        <_>
          <internalNodes>
            0 -1 33 4.6810328960418701e-02</internalNodes>
          <leafValues>
            3.9840359240770340e-02 -6.4360505342483521e-01</leafValues></_>
        <_>
          <internalNodes>
            0 -1 49 -2.1507035940885544e-02</internalNodes>
          <leafValues>
            1.0666954517364502e-01 -2.2253052890300751e-01</leafValues></_>
        <_>
          <internalNodes>
            0 -1 309 1.4369818381965160e-04</internalNodes>
          <leafValues>
            -1.4767935872077942e-01 1.7134164273738861e-01</leafValues></_>
        <_>
          <internalNodes>
            0 -1 273 1.8815968185663223e-02</internalNodes>
          <leafValues>
            -6.5388701856136322e-02 4.0174365043640137e-01</leafValues></_>
        <_>
          <internalNodes>
            0 -1 145 2.4314820766448975e-02</internalNodes>
          <leafValues>
            -6.8662852048873901e-02 3.5277411341667175e-01</leafValues></_>
        <_>
          <internalNodes>
            0 -1 151 -7.9255625605583191e-03</internalNodes>
          <leafValues>
            2.3549069464206696e-01 -1.1798804998397827e-01</leafValues></_>
        <_>
          <internalNodes>
            0 -1 245 -1.4520767331123352e-01</internalNodes>
          <leafValues>
            1.6998380422592163e-01 -1.7446455359458923e-01</leafValues></_>
        <_>
          <internalNodes>
            0 -1 40 -6.4504876732826233e-02</internalNodes>
          <leafValues>
            -4.9337190389633179e-01 5.5362783372402191e-02</leafValues></_>
        <_>
          <internalNodes>
            0 -1 89 -3.7008626386523247e-03</internalNodes>
          <leafValues>
            1.8580846488475800e-01 -1.3342551887035370e-01</leafValues></_>
        <_>
          <internalNodes>
            0 -1 88 2.1763212978839874e-02</internalNodes>
          <leafValues>
            -7.5408086180686951e-02 3.9462167024612427e-01</leafValues></_>
        <_>
          <internalNodes>
            0 -1 43 -3.7694328930228949e-03</internalNodes>
          <leafValues>
            -6.8876874446868896e-01 3.7345364689826965e-02</leafValues></_>
        <_>
          <internalNodes>
            0 -1 111 1.2671222910284996e-02</internalNodes>
          <leafValues>
            -1.2418567389249802e-01 2.2160229086875916e-01</leafValues></_>
        <_>
          <internalNodes>
            0 -1 132 -1.1045724153518677e-02</internalNodes>
          <leafValues>
            2.7071020007133484e-01 -1.0168708860874176e-01</leafValues></_>
        <_>
          <internalNodes>
            0 -1 83 -4.4781230390071869e-03</internalNodes>
          <leafValues>
            1.4762251079082489e-01 -1.7997799813747406e-01</leafValues></_>
        <_>
          <internalNodes>
            0 -1 224 -5.1692086271941662e-03</internalNodes>
          <leafValues>
            -4.1377100348472595e-01 5.9935897588729858e-02</leafValues></_>
        <_>
          <internalNodes>
            0 -1 72 5.4168759379535913e-04</internalNodes>
          <leafValues>
            -1.9815702736377716e-01 1.1794438958168030e-01</leafValues></_>
        <_>
          <internalNodes>
            0 -1 247 -5.7146459817886353e-02</internalNodes>
          <leafValues>
            3.6181867122650146e-01 -6.4487360417842865e-02</leafValues></_>
        <_>
          <internalNodes>
            0 -1 286 -4.2533669329714030e-05</internalNodes>
          <leafValues>
            1.6256451606750488e-01 -1.6797700524330139e-01</leafValues></_>
        <_>
          <internalNodes>
            0 -1 183 -1.1608911678195000e-02</internalNodes>
          <leafValues>
            -3.7606254220008850e-01 6.4096033573150635e-02</leafValues></_>
        <_>
          <internalNodes>
            0 -1 21 -3.9412178099155426e-02</internalNodes>
          <leafValues>
            4.6490132808685303e-01 -5.6401971727609634e-02</leafValues></_>
        <_>
          <internalNodes>
            0 -1 85 4.6645422116853297e-05</internalNodes>
          <leafValues>
            -1.4931809902191162e-01 1.7304468154907227e-01</leafValues></_>
        <_>
          <internalNodes>
            0 -1 85 4.9341161502525210e-04</internalNodes>
          <leafValues>
            1.1451886594295502e-01 -3.0305790901184082e-01</leafValues></_>
        <_>
          <internalNodes>
            0 -1 179 6.1336299404501915e-03</internalNodes>
          <leafValues>
            -1.0947782546281815e-01 2.2651828825473785e-01</leafValues></_>
        <_>
          <internalNodes>
            0 -1 160 -6.9915782660245895e-03</internalNodes>
          <leafValues>
            2.4053165316581726e-01 -1.0908018797636032e-01</leafValues></_></weakClassifiers></_>
    <!-- stage 11 -->
    <_>
      <maxWeakCount>42</maxWeakCount>
      <stageThreshold>-1.5980205535888672e+00</stageThreshold>
      <weakClassifiers>
        <_>
          <internalNodes>
            0 -1 121 -5.0383117049932480e-02</internalNodes>
          <leafValues>
            -1.5231788158416748e-01 -7.2338920831680298e-01</leafValues></_>
        <_>
          <internalNodes>
            0 -1 201 -1.5141667798161507e-02</internalNodes>
          <leafValues>
            2.7048224210739136e-01 -2.3864085972309113e-01</leafValues></_>
        <_>
          <internalNodes>
            0 -1 194 1.2870064005255699e-02</internalNodes>
          <leafValues>
            -8.9393779635429382e-02 3.3177670836448669e-01</leafValues></_>
        <_>
          <internalNodes>
            0 -1 91 2.3223742842674255e-02</internalNodes>
          <leafValues>
            5.6132365018129349e-02 -4.6128627657890320e-01</leafValues></_>
        <_>
          <internalNodes>
            0 -1 91 2.3168474435806274e-02</internalNodes>
          <leafValues>
            -6.0503522399812937e-04 9.7977870702743530e-01</leafValues></_>
        <_>
          <internalNodes>
            0 -1 91 2.3223742842674255e-02</internalNodes>
          <leafValues>
            2.4925245088525116e-04 -7.6882034540176392e-01</leafValues></_>
        <_>
          <internalNodes>
            0 -1 41 1.3026956468820572e-02</internalNodes>
          <leafValues>
            -7.7631197869777679e-02 2.6990538835525513e-01</leafValues></_>
        <_>
          <internalNodes>
            0 -1 109 -8.6081828922033310e-03</internalNodes>
          <leafValues>
            3.1291326880455017e-01 -1.1239907145500183e-01</leafValues></_>
        <_>
          <internalNodes>
            0 -1 12 -1.3040833175182343e-01</internalNodes>
          <leafValues>
            2.2427353262901306e-01 -1.1926069110631943e-01</leafValues></_>
        <_>
          <internalNodes>
            0 -1 173 8.4311142563819885e-03</internalNodes>
          <leafValues>
            -1.1709185689687729e-01 2.2730180621147156e-01</leafValues></_>
        <_>
          <internalNodes>
            0 -1 47 -2.6116895023733377e-03</internalNodes>
          <leafValues>
            1.3201864063739777e-01 -1.8510113656520844e-01</leafValues></_>
        <_>
          <internalNodes>
            0 -1 70 -2.5088569149374962e-02</internalNodes>
          <leafValues>
            -6.3937717676162720e-01 7.4251033365726471e-02</leafValues></_>
        <_>
          <internalNodes>
            0 -1 216 4.8627159558236599e-03</internalNodes>
          <leafValues>
            -1.2805786728858948e-01 1.9501431286334991e-01</leafValues></_>
        <_>
          <internalNodes>
            0 -1 150 5.3192429244518280e-02</internalNodes>
          <leafValues>
            -9.1825291514396667e-02 2.8409954905509949e-01</leafValues></_>
        <_>
          <internalNodes>
            0 -1 66 -2.3653332144021988e-02</internalNodes>
          <leafValues>
            3.4269988536834717e-01 -7.6630465686321259e-02</leafValues></_>
        <_>
          <internalNodes>
            0 -1 235 9.3863345682621002e-03</internalNodes>
          <leafValues>
            -7.8729599714279175e-02 2.9172265529632568e-01</leafValues></_>
        <_>
          <internalNodes>
            0 -1 253 1.0606799041852355e-03</internalNodes>
          <leafValues>
            8.1642195582389832e-02 -3.6853212118148804e-01</leafValues></_>
        <_>
          <internalNodes>
            0 -1 46 8.3943391218781471e-03</internalNodes>
          <leafValues>
            3.2631434500217438e-02 -6.1433082818984985e-01</leafValues></_>
        <_>
          <internalNodes>
            0 -1 2 -6.4596603624522686e-03</internalNodes>
          <leafValues>
            2.5631627440452576e-01 -8.5766777396202087e-02</leafValues></_>
        <_>
          <internalNodes>
            0 -1 0 -1.1587436893023551e-04</internalNodes>
          <leafValues>
            -2.7383315563201904e-01 8.4284424781799316e-02</leafValues></_>
        <_>
          <internalNodes>
            0 -1 226 -8.5032425820827484e-02</internalNodes>
          <leafValues>
            1.8195964395999908e-01 -1.2811039388179779e-01</leafValues></_>
        <_>
          <internalNodes>
            0 -1 202 6.6049443557858467e-03</internalNodes>
          <leafValues>
            -9.8580643534660339e-02 2.4323941767215729e-01</leafValues></_>
        <_>
          <internalNodes>
            0 -1 229 -8.1749688833951950e-03</internalNodes>
          <leafValues>
            2.8968548774719238e-01 -8.1626698374748230e-02</leafValues></_>
        <_>
          <internalNodes>
            0 -1 20 -1.2773171067237854e-02</internalNodes>
          <leafValues>
            2.4990150332450867e-01 -8.7906382977962494e-02</leafValues></_>
        <_>
          <internalNodes>
            0 -1 78 7.1326583623886108e-02</internalNodes>
          <leafValues>
            -6.2626615166664124e-02 3.8482537865638733e-01</leafValues></_>
        <_>
          <internalNodes>
            0 -1 213 -3.3707031980156898e-03</internalNodes>
          <leafValues>
            1.8586280941963196e-01 -1.2751398980617523e-01</leafValues></_>
        <_>
          <internalNodes>
            0 -1 139 -1.9836559891700745e-02</internalNodes>
          <leafValues>
            2.7940979599952698e-01 -8.2886449992656708e-02</leafValues></_>
        <_>
          <internalNodes>
            0 -1 7 -4.7746151685714722e-02</internalNodes>
          <leafValues>
            4.9135348200798035e-01 -4.2284533381462097e-02</leafValues></_>
        <_>
          <internalNodes>
            0 -1 204 3.9474451914429665e-03</internalNodes>
          <leafValues>
            6.5494738519191742e-02 -3.8807880878448486e-01</leafValues></_>
        <_>
          <internalNodes>
            0 -1 110 -8.2781892269849777e-03</internalNodes>
          <leafValues>
            2.1438248455524445e-01 -1.0519094765186310e-01</leafValues></_>
        <_>
          <internalNodes>
            0 -1 256 1.9382139667868614e-02</internalNodes>
          <leafValues>
            -7.9121492803096771e-02 2.8147149085998535e-01</leafValues></_>
        <_>
          <internalNodes>
            0 -1 242 5.9704519808292389e-03</internalNodes>
          <leafValues>
            3.4274753183126450e-02 -6.7846989631652832e-01</leafValues></_>
        <_>
          <internalNodes>
            0 -1 9 8.1048207357525826e-04</internalNodes>
          <leafValues>
            -1.6459251940250397e-01 1.2913893163204193e-01</leafValues></_>
        <_>
          <internalNodes>
            0 -1 259 -1.6338979825377464e-02</internalNodes>
          <leafValues>
            3.2636785507202148e-01 -7.1274541318416595e-02</leafValues></_>
        <_>
          <internalNodes>
            0 -1 288 -1.9808806478977203e-02</internalNodes>
          <leafValues>
            1.3155446946620941e-01 -1.8394459784030914e-01</leafValues></_>
        <_>
          <internalNodes>
            0 -1 295 -2.5726724416017532e-03</internalNodes>
          <leafValues>
            1.2009195983409882e-01 -1.8206004798412323e-01</leafValues></_>
        <_>
          <internalNodes>
            0 -1 252 2.6259247679263353e-03</internalNodes>
          <leafValues>
            -1.2376282364130020e-01 1.8734884262084961e-01</leafValues></_>
        <_>
          <internalNodes>
            0 -1 96 -1.0766535997390747e-02</internalNodes>
          <leafValues>
            2.3388193547725677e-01 -9.8266780376434326e-02</leafValues></_>
        <_>
          <internalNodes>
            0 -1 203 -4.5254048018250614e-05</internalNodes>
          <leafValues>
            1.5207178890705109e-01 -1.4928413927555084e-01</leafValues></_>
        <_>
          <internalNodes>
            0 -1 175 -8.5784066468477249e-03</internalNodes>
          <leafValues>
            -5.6475812196731567e-01 4.0006950497627258e-02</leafValues></_>
        <_>
          <internalNodes>
            0 -1 187 5.2835568785667419e-03</internalNodes>
          <leafValues>
            -8.8770441710948944e-02 2.5429135560989380e-01</leafValues></_>
        <_>
          <internalNodes>
            0 -1 308 5.2426448091864586e-03</internalNodes>
          <leafValues>
            3.9013110101222992e-02 -5.8184629678726196e-01</leafValues></_></weakClassifiers></_>
    <!-- stage 12 -->
    <_>
      <maxWeakCount>44</maxWeakCount>
      <stageThreshold>-1.5146813392639160e+00</stageThreshold>
      <weakClassifiers>
        <_>
          <internalNodes>
            0 -1 101 -8.9849114418029785e-02</internalNodes>
          <leafValues>
            -7.8651688992977142e-02 -7.1667832136154175e-01</leafValues></_>
        <_>
          <internalNodes>
            0 -1 294 -5.8838771656155586e-03</internalNodes>
          <leafValues>
            5.0907943397760391e-02 -2.8254801034927368e-01</leafValues></_>
        <_>
          <internalNodes>
            0 -1 285 -4.3430840596556664e-03</internalNodes>
          <leafValues>
            -9.1052603721618652e-01 1.7691921442747116e-02</leafValues></_>
        <_>
          <internalNodes>
            0 -1 184 7.9160090535879135e-03</internalNodes>
          <leafValues>
            -1.0004753619432449e-01 2.1269479393959045e-01</leafValues></_>
        <_>
          <internalNodes>
            0 -1 185 -5.3516519255936146e-03</internalNodes>
          <leafValues>
            2.0449528098106384e-01 -1.0448708385229111e-01</leafValues></_>
        <_>
          <internalNodes>
            0 -1 291 -1.8796470016241074e-02</internalNodes>
          <leafValues>
            -3.7105277180671692e-01 5.8664649724960327e-02</leafValues></_>
        <_>
          <internalNodes>
            0 -1 108 1.0653076693415642e-02</internalNodes>
          <leafValues>
            6.3039116561412811e-02 -7.1887004375457764e-01</leafValues></_>
        <_>
          <internalNodes>
            0 -1 152 3.7079583853483200e-03</internalNodes>
          <leafValues>
            1.3013143092393875e-02 -7.9393118619918823e-01</leafValues></_>
        <_>
          <internalNodes>
            0 -1 154 6.4782681874930859e-04</internalNodes>
          <leafValues>
            6.4896941184997559e-02 -3.3826503157615662e-01</leafValues></_>
        <_>
          <internalNodes>
            0 -1 95 -9.0116597712039948e-03</internalNodes>
          <leafValues>
            -2.9087275266647339e-01 6.5137200057506561e-02</leafValues></_>
        <_>
          <internalNodes>
            0 -1 249 7.3174787685275078e-03</internalNodes>
          <leafValues>
            -9.8493911325931549e-02 2.0145307481288910e-01</leafValues></_>
        <_>
          <internalNodes>
            0 -1 263 1.6609095036983490e-02</internalNodes>
          <leafValues>
            3.6247063428163528e-02 -5.4931491613388062e-01</leafValues></_>
        <_>
          <internalNodes>
            0 -1 135 1.4829471707344055e-02</internalNodes>
          <leafValues>
            -9.1502554714679718e-02 2.2674627602100372e-01</leafValues></_>
        <_>
          <internalNodes>
            0 -1 97 -1.0811564512550831e-02</internalNodes>
          <leafValues>
            2.5491771101951599e-01 -1.2717236578464508e-01</leafValues></_>
        <_>
          <internalNodes>
            0 -1 24 7.0713013410568237e-02</internalNodes>
          <leafValues>
            2.6793397963047028e-02 -8.2065075635910034e-01</leafValues></_>
        <_>
          <internalNodes>
            0 -1 6 3.4794557839632034e-02</internalNodes>
          <leafValues>
            -9.2122614383697510e-02 2.2953310608863831e-01</leafValues></_>
        <_>
          <internalNodes>
            0 -1 155 -2.2058459580875933e-04</internalNodes>
          <leafValues>
            -2.2792364656925201e-01 9.1987781226634979e-02</leafValues></_>
        <_>
          <internalNodes>
            0 -1 176 4.5621840399689972e-05</internalNodes>
          <leafValues>
            -1.1869627237319946e-01 1.8399465084075928e-01</leafValues></_>
        <_>
          <internalNodes>
            0 -1 290 1.8056454136967659e-03</internalNodes>
          <leafValues>
            -1.2137609720230103e-01 1.6717453300952911e-01</leafValues></_>
        <_>
          <internalNodes>
            0 -1 94 -1.8284618854522705e-02</internalNodes>
          <leafValues>
            -5.9214597940444946e-01 3.3029869198799133e-02</leafValues></_>
        <_>
          <internalNodes>
            0 -1 282 3.9953095838427544e-03</internalNodes>
          <leafValues>
            2.4833796545863152e-02 -6.8110758066177368e-01</leafValues></_>
        <_>
          <internalNodes>
            0 -1 243 7.1260388940572739e-03</internalNodes>
          <leafValues>
            2.4623174220323563e-02 -6.7515844106674194e-01</leafValues></_>
        <_>
          <internalNodes>
            0 -1 22 -5.0341007299721241e-03</internalNodes>
          <leafValues>
            2.5986236333847046e-01 -7.8263342380523682e-02</leafValues></_>
        <_>
          <internalNodes>
            0 -1 146 4.6637239865958691e-03</internalNodes>
          <leafValues>
            -1.0071045160293579e-01 2.0286741852760315e-01</leafValues></_>
        <_>
          <internalNodes>
            0 -1 104 -4.2437715455889702e-03</internalNodes>
          <leafValues>
            1.8668702244758606e-01 -1.1779683083295822e-01</leafValues></_>
        <_>
          <internalNodes>
            0 -1 192 8.3853781223297119e-02</internalNodes>
          <leafValues>
            -8.5223525762557983e-02 2.3551863431930542e-01</leafValues></_>
        <_>
          <internalNodes>
            0 -1 232 -4.6333700418472290e-02</internalNodes>
          <leafValues>
            2.1073165535926819e-01 -1.2579587101936340e-01</leafValues></_>
        <_>
          <internalNodes>
            0 -1 277 -1.2841223739087582e-02</internalNodes>
          <leafValues>
            2.2752009332180023e-01 -9.4877004623413086e-02</leafValues></_>
        <_>
          <internalNodes>
            0 -1 276 2.9036060441285372e-03</internalNodes>
          <leafValues>
            -1.0853042453527451e-01 1.9276838004589081e-01</leafValues></_>
        <_>
          <internalNodes>
            0 -1 258 -2.3575956001877785e-02</internalNodes>
          <leafValues>
            -4.0603169798851013e-01 5.2335906773805618e-02</leafValues></_>
        <_>
          <internalNodes>
            0 -1 8 -3.4552350640296936e-02</internalNodes>
          <leafValues>
            2.9947531223297119e-01 -7.2047472000122070e-02</leafValues></_>
        <_>
          <internalNodes>
            0 -1 56 -4.9833185039460659e-04</internalNodes>
          <leafValues>
            -3.0692645907402039e-01 7.4410900473594666e-02</leafValues></_>
        <_>
          <internalNodes>
            0 -1 75 5.1727001846302301e-05</internalNodes>
          <leafValues>
            -1.2640389800071716e-01 1.6575875878334045e-01</leafValues></_>
        <_>
          <internalNodes>
            0 -1 55 4.0898250881582499e-04</internalNodes>
          <leafValues>
            8.4595650434494019e-02 -2.5118511915206909e-01</leafValues></_>
        <_>
          <internalNodes>
            0 -1 11 6.1351701617240906e-02</internalNodes>
          <leafValues>
            -4.7456923872232437e-02 4.5606359839439392e-01</leafValues></_>
        <_>
          <internalNodes>
            0 -1 181 1.4776129275560379e-02</internalNodes>
          <leafValues>
            5.1906555891036987e-02 -4.5788222551345825e-01</leafValues></_>
        <_>
          <internalNodes>
            0 -1 143 5.2168397814966738e-05</internalNodes>
          <leafValues>
            -1.5210232138633728e-01 1.3973131775856018e-01</leafValues></_>
        <_>
          <internalNodes>
            0 -1 237 -8.9836325496435165e-03</internalNodes>
          <leafValues>
            -3.4459835290908813e-01 5.9190865606069565e-02</leafValues></_>
        <_>
          <internalNodes>
            0 -1 144 -6.4950520172715187e-03</internalNodes>
          <leafValues>
            2.5020426511764526e-01 -9.1977134346961975e-02</leafValues></_>
        <_>
          <internalNodes>
            0 -1 302 4.8781475052237511e-03</internalNodes>
          <leafValues>
            -1.1245477944612503e-01 1.8493501842021942e-01</leafValues></_>
        <_>
          <internalNodes>
            0 -1 236 -4.1926544159650803e-02</internalNodes>
          <leafValues>
            2.7007257938385010e-01 -7.7622428536415100e-02</leafValues></_>
        <_>
          <internalNodes>
            0 -1 166 1.7252154648303986e-02</internalNodes>
          <leafValues>
            3.6219011992216110e-02 -5.5647128820419312e-01</leafValues></_>
        <_>
          <internalNodes>
            0 -1 52 -1.5796508640050888e-02</internalNodes>
          <leafValues>
            2.0385448634624481e-01 -9.6553392708301544e-02</leafValues></_>
        <_>
          <internalNodes>
            0 -1 73 -2.2981375455856323e-02</internalNodes>
          <leafValues>
            1.7819920182228088e-01 -1.1403526365756989e-01</leafValues></_></weakClassifiers></_></stages>
  <features>
    <_>
      <rects>
        <_>
          0 0 2 1 -1.</_>
        <_>
          1 0 1 1 2.</_></rects>
      <tilted>0</tilted></_>
    <_>
      <rects>
        <_>
          0 0 3 1 -1.</_>
        <_>
          1 0 1 1 3.</_></rects>
      <tilted>0</tilted></_>
    <_>
      <rects>
        <_>
          0 0 2 7 -1.</_>
        <_>
          1 0 1 7 2.</_></rects>
      <tilted>0</tilted></_>
    <_>
      <rects>
        <_>
          0 0 1 20 -1.</_>
        <_>
          0 10 1 10 2.</_></rects>
      <tilted>0</tilted></_>
    <_>
      <rects>
        <_>
          0 0 4 12 -1.</_>
        <_>
          0 0 2 6 2.</_>
        <_>
          2 6 2 6 2.</_></rects>
      <tilted>0</tilted></_>
    <_>
      <rects>
        <_>
          0 0 4 12 -1.</_>
        <_>
          0 6 4 6 2.</_></rects>
      <tilted>0</tilted></_>
    <_>
      <rects>
        <_>
          0 0 8 14 -1.</_>
        <_>
          0 0 4 7 2.</_>
        <_>
          4 7 4 7 2.</_></rects>
      <tilted>0</tilted></_>
    <_>
      <rects>
        <_>
          0 0 10 3 -1.</_>
        <_>
          5 0 5 3 2.</_></rects>
      <tilted>0</tilted></_>
    <_>
      <rects>
        <_>
          0 0 10 10 -1.</_>
        <_>
          0 0 5 5 2.</_>
        <_>
          5 5 5 5 2.</_></rects>
      <tilted>0</tilted></_>
    <_>
      <rects>
        <_>
          0 0 18 1 -1.</_>
        <_>
          6 0 6 1 3.</_></rects>
      <tilted>0</tilted></_>
    <_>
      <rects>
        <_>
          0 0 7 6 -1.</_>
        <_>
          0 3 7 3 2.</_></rects>
      <tilted>0</tilted></_>
    <_>
      <rects>
        <_>
          0 0 14 6 -1.</_>
        <_>
          0 0 7 3 2.</_>
        <_>
          7 3 7 3 2.</_></rects>
      <tilted>0</tilted></_>
    <_>
      <rects>
        <_>
          0 0 8 12 -1.</_>
        <_>
          0 6 8 6 2.</_></rects>
      <tilted>0</tilted></_>
    <_>
      <rects>
        <_>
          0 0 16 7 -1.</_>
        <_>
          8 0 8 7 2.</_></rects>
      <tilted>0</tilted></_>
    <_>
      <rects>
        <_>
          0 0 20 20 -1.</_>
        <_>
          10 0 10 20 2.</_></rects>
      <tilted>0</tilted></_>
    <_>
      <rects>
        <_>
          0 0 11 20 -1.</_>
        <_>
          0 10 11 10 2.</_></rects>
      <tilted>0</tilted></_>
    <_>
      <rects>
        <_>
          0 0 19 20 -1.</_>
        <_>
          0 10 19 10 2.</_></rects>
      <tilted>0</tilted></_>
    <_>
      <rects>
        <_>
          0 0 20 16 -1.</_>
        <_>
          0 8 20 8 2.</_></rects>
      <tilted>0</tilted></_>
    <_>
      <rects>
        <_>
          0 1 1 18 -1.</_>
        <_>
          0 10 1 9 2.</_></rects>
      <tilted>0</tilted></_>
    <_>
      <rects>
        <_>
          0 1 2 13 -1.</_>
        <_>
          1 1 1 13 2.</_></rects>
      <tilted>0</tilted></_>
    <_>
      <rects>
        <_>
          0 1 6 6 -1.</_>
        <_>
          0 1 3 3 2.</_>
        <_>
          3 4 3 3 2.</_></rects>
      <tilted>0</tilted></_>
    <_>
      <rects>
        <_>
          0 1 6 5 -1.</_>
        <_>
          3 1 3 5 2.</_></rects>
      <tilted>0</tilted></_>
    <_>
      <rects>
        <_>
          0 2 2 6 -1.</_>
        <_>
          0 2 1 3 2.</_>
        <_>
          1 5 1 3 2.</_></rects>
      <tilted>0</tilted></_>
    <_>
      <rects>
        <_>
          0 2 2 10 -1.</_>
        <_>
          1 2 1 10 2.</_></rects>
      <tilted>0</tilted></_>
    <_>
      <rects>
        <_>
          0 2 4 9 -1.</_>
        <_>
          0 5 4 3 3.</_></rects>
      <tilted>0</tilted></_>
    <_>
      <rects>
        <_>
          0 2 20 6 -1.</_>
        <_>
          0 4 20 2 3.</_></rects>
      <tilted>0</tilted></_>
    <_>
      <rects>
        <_>
          0 4 2 13 -1.</_>
        <_>
          1 4 1 13 2.</_></rects>
      <tilted>0</tilted></_>
    <_>
      <rects>
        <_>
          0 4 4 7 -1.</_>
        <_>
          2 4 2 7 2.</_></rects>
      <tilted>0</tilted></_>
    <_>
      <rects>
        <_>
          0 4 6 16 -1.</_>
        <_>
          2 4 2 16 3.</_></rects>
      <tilted>0</tilted></_>
    <_>
      <rects>
        <_>
          0 4 18 6 -1.</_>
        <_>
          0 6 18 2 3.</_></rects>
      <tilted>0</tilted></_>
    <_>
      <rects>
        <_>
          0 5 3 7 -1.</_>
        <_>
          1 5 1 7 3.</_></rects>
      <tilted>0</tilted></_>
    <_>
      <rects>
        <_>
          0 5 2 14 -1.</_>
        <_>
          1 5 1 14 2.</_></rects>
      <tilted>0</tilted></_>
    <_>
      <rects>
        <_>
          0 5 19 15 -1.</_>
        <_>
          0 10 19 5 3.</_></rects>
      <tilted>0</tilted></_>
    <_>
      <rects>
        <_>
          0 6 2 12 -1.</_>
        <_>
          0 10 2 4 3.</_></rects>
      <tilted>0</tilted></_>
    <_>
      <rects>
        <_>
          0 6 4 11 -1.</_>
        <_>
          2 6 2 11 2.</_></rects>
      <tilted>0</tilted></_>
    <_>
      <rects>
        <_>
          0 7 14 10 -1.</_>
        <_>
          0 7 7 5 2.</_>
        <_>
          7 12 7 5 2.</_></rects>
      <tilted>0</tilted></_>
    <_>
      <rects>
        <_>
          0 7 18 6 -1.</_>
        <_>
          0 9 18 2 3.</_></rects>
      <tilted>0</tilted></_>
    <_>
      <rects>
        <_>
          0 7 19 6 -1.</_>
        <_>
          0 9 19 2 3.</_></rects>
      <tilted>0</tilted></_>
    <_>
      <rects>
        <_>
          0 9 2 9 -1.</_>
        <_>
          1 9 1 9 2.</_></rects>
      <tilted>0</tilted></_>
    <_>
      <rects>
        <_>
          0 9 20 2 -1.</_>
        <_>
          10 9 10 2 2.</_></rects>
      <tilted>0</tilted></_>
    <_>
      <rects>
        <_>
          0 9 20 8 -1.</_>
        <_>
          0 9 10 4 2.</_>
        <_>
          10 13 10 4 2.</_></rects>
      <tilted>0</tilted></_>
    <_>
      <rects>
        <_>
          0 10 13 3 -1.</_>
        <_>
          0 11 13 1 3.</_></rects>
      <tilted>0</tilted></_>
    <_>
      <rects>
        <_>
          0 10 20 10 -1.</_>
        <_>
          0 15 20 5 2.</_></rects>
      <tilted>0</tilted></_>
    <_>
      <rects>
        <_>
          0 12 2 2 -1.</_>
        <_>
          0 12 1 1 2.</_>
        <_>
          1 13 1 1 2.</_></rects>
      <tilted>0</tilted></_>
    <_>
      <rects>
        <_>
          0 12 18 8 -1.</_>
        <_>
          0 16 18 4 2.</_></rects>
      <tilted>0</tilted></_>
    <_>
      <rects>
        <_>
          0 12 20 8 -1.</_>
        <_>
          0 16 20 4 2.</_></rects>
      <tilted>0</tilted></_>
    <_>
      <rects>
        <_>
          0 14 2 3 -1.</_>
        <_>
          0 15 2 1 3.</_></rects>
      <tilted>0</tilted></_>
    <_>
      <rects>
        <_>
          0 14 3 4 -1.</_>
        <_>
          0 16 3 2 2.</_></rects>
      <tilted>0</tilted></_>
    <_>
      <rects>
        <_>
          0 14 20 6 -1.</_>
        <_>
          10 14 10 6 2.</_></rects>
      <tilted>0</tilted></_>
    <_>
      <rects>
        <_>
          0 14 17 6 -1.</_>
        <_>
          0 17 17 3 2.</_></rects>
      <tilted>0</tilted></_>
    <_>
      <rects>
        <_>
          0 15 2 2 -1.</_>
        <_>
          0 15 1 1 2.</_>
        <_>
          1 16 1 1 2.</_></rects>
      <tilted>0</tilted></_>
    <_>
      <rects>
        <_>
          0 15 15 5 -1.</_>
        <_>
          5 15 5 5 3.</_></rects>
      <tilted>0</tilted></_>
    <_>
      <rects>
        <_>
          0 16 16 2 -1.</_>
        <_>
          0 17 16 1 2.</_></rects>
      <tilted>0</tilted></_>
    <_>
      <rects>
        <_>
          0 17 18 3 -1.</_>
        <_>
          9 17 9 3 2.</_></rects>
      <tilted>0</tilted></_>
    <_>
      <rects>
        <_>
          0 19 12 1 -1.</_>
        <_>
          4 19 4 1 3.</_></rects>
      <tilted>0</tilted></_>
    <_>
      <rects>
        <_>
          1 0 2 1 -1.</_>
        <_>
          2 0 1 1 2.</_></rects>
      <tilted>0</tilted></_>
    <_>
      <rects>
        <_>
          1 0 3 1 -1.</_>
        <_>
          2 0 1 1 3.</_></rects>
      <tilted>0</tilted></_>
    <_>
      <rects>
        <_>
          1 0 6 8 -1.</_>
        <_>
          1 4 6 4 2.</_></rects>
      <tilted>0</tilted></_>
    <_>
      <rects>
        <_>
          1 0 15 20 -1.</_>
        <_>
          1 10 15 10 2.</_></rects>
      <tilted>0</tilted></_>
    <_>
      <rects>
        <_>
          1 1 2 2 -1.</_>
        <_>
          1 1 1 1 2.</_>
        <_>
          2 2 1 1 2.</_></rects>
      <tilted>0</tilted></_>
    <_>
      <rects>
        <_>
          1 1 18 18 -1.</_>
        <_>
          10 1 9 18 2.</_></rects>
      <tilted>0</tilted></_>
    <_>
      <rects>
        <_>
          1 2 2 1 -1.</_>
        <_>
          2 2 1 1 2.</_></rects>
      <tilted>0</tilted></_>
    <_>
      <rects>
        <_>
          1 3 19 6 -1.</_>
        <_>
          1 5 19 2 3.</_></rects>
      <tilted>0</tilted></_>
    <_>
      <rects>
        <_>
          1 7 15 3 -1.</_>
        <_>
          1 8 15 1 3.</_></rects>
      <tilted>0</tilted></_>
    <_>
      <rects>
        <_>
          1 7 19 6 -1.</_>
        <_>
          1 9 19 2 3.</_></rects>
      <tilted>0</tilted></_>
    <_>
      <rects>
        <_>
          1 9 11 3 -1.</_>
        <_>
          1 10 11 1 3.</_></rects>
      <tilted>0</tilted></_>
    <_>
      <rects>
        <_>
          1 9 15 2 -1.</_>
        <_>
          1 10 15 1 2.</_></rects>
      <tilted>0</tilted></_>
    <_>
      <rects>
        <_>
          1 9 16 6 -1.</_>
        <_>
          1 11 16 2 3.</_></rects>
      <tilted>0</tilted></_>
    <_>
      <rects>
        <_>
          1 9 19 6 -1.</_>
        <_>
          1 11 19 2 3.</_></rects>
      <tilted>0</tilted></_>
    <_>
      <rects>
        <_>
          1 11 3 8 -1.</_>
        <_>
          2 11 1 8 3.</_></rects>
      <tilted>0</tilted></_>
    <_>
      <rects>
        <_>
          1 11 10 4 -1.</_>
        <_>
          1 11 5 2 2.</_>
        <_>
          6 13 5 2 2.</_></rects>
      <tilted>0</tilted></_>
    <_>
      <rects>
        <_>
          1 11 19 6 -1.</_>
        <_>
          1 13 19 2 3.</_></rects>
      <tilted>0</tilted></_>
    <_>
      <rects>
        <_>
          1 13 6 3 -1.</_>
        <_>
          4 13 3 3 2.</_></rects>
      <tilted>0</tilted></_>
    <_>
      <rects>
        <_>
          1 13 9 4 -1.</_>
        <_>
          1 15 9 2 2.</_></rects>
      <tilted>0</tilted></_>
    <_>
      <rects>
        <_>
          1 14 4 1 -1.</_>
        <_>
          3 14 2 1 2.</_></rects>
      <tilted>0</tilted></_>
    <_>
      <rects>
        <_>
          2 0 2 1 -1.</_>
        <_>
          3 0 1 1 2.</_></rects>
      <tilted>0</tilted></_>
    <_>
      <rects>
        <_>
          2 0 3 1 -1.</_>
        <_>
          3 0 1 1 3.</_></rects>
      <tilted>0</tilted></_>
    <_>
      <rects>
        <_>
          2 0 2 2 -1.</_>
        <_>
          3 0 1 2 2.</_></rects>
      <tilted>0</tilted></_>
    <_>
      <rects>
        <_>
          2 0 6 12 -1.</_>
        <_>
          2 4 6 4 3.</_></rects>
      <tilted>0</tilted></_>
    <_>
      <rects>
        <_>
          2 0 15 6 -1.</_>
        <_>
          2 2 15 2 3.</_></rects>
      <tilted>0</tilted></_>
    <_>
      <rects>
        <_>
          2 0 16 6 -1.</_>
        <_>
          2 3 16 3 2.</_></rects>
      <tilted>0</tilted></_>
    <_>
      <rects>
        <_>
          2 0 18 6 -1.</_>
        <_>
          2 2 18 2 3.</_></rects>
      <tilted>0</tilted></_>
    <_>
      <rects>
        <_>
          2 1 17 4 -1.</_>
        <_>
          2 3 17 2 2.</_></rects>
      <tilted>0</tilted></_>
    <_>
      <rects>
        <_>
          2 1 18 2 -1.</_>
        <_>
          2 2 18 1 2.</_></rects>
      <tilted>0</tilted></_>
    <_>
      <rects>
        <_>
          2 1 18 6 -1.</_>
        <_>
          2 3 18 2 3.</_></rects>
      <tilted>0</tilted></_>
    <_>
      <rects>
        <_>
          2 2 2 1 -1.</_>
        <_>
          3 2 1 1 2.</_></rects>
      <tilted>0</tilted></_>
    <_>
      <rects>
        <_>
          2 2 7 6 -1.</_>
        <_>
          2 4 7 2 3.</_></rects>
      <tilted>0</tilted></_>
    <_>
      <rects>
        <_>
          2 3 3 14 -1.</_>
        <_>
          3 3 1 14 3.</_></rects>
      <tilted>0</tilted></_>
    <_>
      <rects>
        <_>
          2 4 3 13 -1.</_>
        <_>
          3 4 1 13 3.</_></rects>
      <tilted>0</tilted></_>
    <_>
      <rects>
        <_>
          2 7 3 6 -1.</_>
        <_>
          3 7 1 6 3.</_></rects>
      <tilted>0</tilted></_>
    <_>
      <rects>
        <_>
          2 7 3 10 -1.</_>
        <_>
          3 7 1 10 3.</_></rects>
      <tilted>0</tilted></_>
    <_>
      <rects>
        <_>
          2 8 8 6 -1.</_>
        <_>
          2 8 4 3 2.</_>
        <_>
          6 11 4 3 2.</_></rects>
      <tilted>0</tilted></_>
    <_>
      <rects>
        <_>
          2 8 16 6 -1.</_>
        <_>
          2 8 8 3 2.</_>
        <_>
          10 11 8 3 2.</_></rects>
      <tilted>0</tilted></_>
    <_>
      <rects>
        <_>
          2 8 18 12 -1.</_>
        <_>
          2 14 18 6 2.</_></rects>
      <tilted>0</tilted></_>
    <_>
      <rects>
        <_>
          2 9 4 8 -1.</_>
        <_>
          2 9 2 4 2.</_>
        <_>
          4 13 2 4 2.</_></rects>
      <tilted>0</tilted></_>
    <_>
      <rects>
        <_>
          2 10 16 1 -1.</_>
        <_>
          10 10 8 1 2.</_></rects>
      <tilted>0</tilted></_>
    <_>
      <rects>
        <_>
          2 15 12 3 -1.</_>
        <_>
          2 16 12 1 3.</_></rects>
      <tilted>0</tilted></_>
    <_>
      <rects>
        <_>
          2 17 14 3 -1.</_>
        <_>
          2 18 14 1 3.</_></rects>
      <tilted>0</tilted></_>
    <_>
      <rects>
        <_>
          3 0 2 1 -1.</_>
        <_>
          4 0 1 1 2.</_></rects>
      <tilted>0</tilted></_>
    <_>
      <rects>
        <_>
          3 0 3 1 -1.</_>
        <_>
          4 0 1 1 3.</_></rects>
      <tilted>0</tilted></_>
    <_>
      <rects>
        <_>
          3 0 16 20 -1.</_>
        <_>
          3 10 16 10 2.</_></rects>
      <tilted>0</tilted></_>
    <_>
      <rects>
        <_>
          3 2 17 2 -1.</_>
        <_>
          3 3 17 1 2.</_></rects>
      <tilted>0</tilted></_>
    <_>
      <rects>
        <_>
          3 3 12 3 -1.</_>
        <_>
          3 4 12 1 3.</_></rects>
      <tilted>0</tilted></_>
    <_>
      <rects>
        <_>
          3 3 16 4 -1.</_>
        <_>
          3 5 16 2 2.</_></rects>
      <tilted>0</tilted></_>
    <_>
      <rects>
        <_>
          3 5 7 2 -1.</_>
        <_>
          3 6 7 1 2.</_></rects>
      <tilted>0</tilted></_>
    <_>
      <rects>
        <_>
          3 7 3 10 -1.</_>
        <_>
          4 7 1 10 3.</_></rects>
      <tilted>0</tilted></_>
    <_>
      <rects>
        <_>
          3 7 3 13 -1.</_>
        <_>
          4 7 1 13 3.</_></rects>
      <tilted>0</tilted></_>
    <_>
      <rects>
        <_>
          3 8 10 6 -1.</_>
        <_>
          3 8 5 3 2.</_>
        <_>
          8 11 5 3 2.</_></rects>
      <tilted>0</tilted></_>
    <_>
      <rects>
        <_>
          3 10 1 6 -1.</_>
        <_>
          3 13 1 3 2.</_></rects>
      <tilted>0</tilted></_>
    <_>
      <rects>
        <_>
          3 10 7 2 -1.</_>
        <_>
          3 11 7 1 2.</_></rects>
      <tilted>0</tilted></_>
    <_>
      <rects>
        <_>
          3 12 16 3 -1.</_>
        <_>
          3 13 16 1 3.</_></rects>
      <tilted>0</tilted></_>
    <_>
      <rects>
        <_>
          3 13 16 3 -1.</_>
        <_>
          3 14 16 1 3.</_></rects>
      <tilted>0</tilted></_>
    <_>
      <rects>
        <_>
          3 13 17 6 -1.</_>
        <_>
          3 15 17 2 3.</_></rects>
      <tilted>0</tilted></_>
    <_>
      <rects>
        <_>
          3 14 3 5 -1.</_>
        <_>
          4 14 1 5 3.</_></rects>
      <tilted>0</tilted></_>
    <_>
      <rects>
        <_>
          3 15 15 2 -1.</_>
        <_>
          3 16 15 1 2.</_></rects>
      <tilted>0</tilted></_>
    <_>
      <rects>
        <_>
          3 19 14 1 -1.</_>
        <_>
          10 19 7 1 2.</_></rects>
      <tilted>0</tilted></_>
    <_>
      <rects>
        <_>
          4 0 2 1 -1.</_>
        <_>
          5 0 1 1 2.</_></rects>
      <tilted>0</tilted></_>
    <_>
      <rects>
        <_>
          4 0 3 1 -1.</_>
        <_>
          5 0 1 1 3.</_></rects>
      <tilted>0</tilted></_>
    <_>
      <rects>
        <_>
          4 0 8 8 -1.</_>
        <_>
          4 4 8 4 2.</_></rects>
      <tilted>0</tilted></_>
    <_>
      <rects>
        <_>
          4 1 9 1 -1.</_>
        <_>
          7 1 3 1 3.</_></rects>
      <tilted>0</tilted></_>
    <_>
      <rects>
        <_>
          4 1 6 12 -1.</_>
        <_>
          4 7 6 6 2.</_></rects>
      <tilted>0</tilted></_>
    <_>
      <rects>
        <_>
          4 2 12 2 -1.</_>
        <_>
          4 3 12 1 2.</_></rects>
      <tilted>0</tilted></_>
    <_>
      <rects>
        <_>
          4 4 5 3 -1.</_>
        <_>
          4 5 5 1 3.</_></rects>
      <tilted>0</tilted></_>
    <_>
      <rects>
        <_>
          4 4 15 6 -1.</_>
        <_>
          4 6 15 2 3.</_></rects>
      <tilted>0</tilted></_>
    <_>
      <rects>
        <_>
          4 5 13 3 -1.</_>
        <_>
          4 6 13 1 3.</_></rects>
      <tilted>0</tilted></_>
    <_>
      <rects>
        <_>
          4 6 16 14 -1.</_>
        <_>
          4 6 8 7 2.</_>
        <_>
          12 13 8 7 2.</_></rects>
      <tilted>0</tilted></_>
    <_>
      <rects>
        <_>
          4 8 10 8 -1.</_>
        <_>
          4 8 5 4 2.</_>
        <_>
          9 12 5 4 2.</_></rects>
      <tilted>0</tilted></_>
    <_>
      <rects>
        <_>
          4 8 14 3 -1.</_>
        <_>
          4 9 14 1 3.</_></rects>
      <tilted>0</tilted></_>
    <_>
      <rects>
        <_>
          4 8 16 6 -1.</_>
        <_>
          4 10 16 2 3.</_></rects>
      <tilted>0</tilted></_>
    <_>
      <rects>
        <_>
          4 9 14 2 -1.</_>
        <_>
          4 10 14 1 2.</_></rects>
      <tilted>0</tilted></_>
    <_>
      <rects>
        <_>
          4 10 3 10 -1.</_>
        <_>
          5 10 1 10 3.</_></rects>
      <tilted>0</tilted></_>
    <_>
      <rects>
        <_>
          4 12 16 8 -1.</_>
        <_>
          4 16 16 4 2.</_></rects>
      <tilted>0</tilted></_>
    <_>
      <rects>
        <_>
          4 13 14 3 -1.</_>
        <_>
          4 14 14 1 3.</_></rects>
      <tilted>0</tilted></_>
    <_>
      <rects>
        <_>
          4 14 3 6 -1.</_>
        <_>
          5 14 1 6 3.</_></rects>
      <tilted>0</tilted></_>
    <_>
      <rects>
        <_>
          4 16 12 2 -1.</_>
        <_>
          4 17 12 1 2.</_></rects>
      <tilted>0</tilted></_>
    <_>
      <rects>
        <_>
          4 17 14 3 -1.</_>
        <_>
          4 18 14 1 3.</_></rects>
      <tilted>0</tilted></_>
    <_>
      <rects>
        <_>
          4 18 1 2 -1.</_>
        <_>
          4 19 1 1 2.</_></rects>
      <tilted>0</tilted></_>
    <_>
      <rects>
        <_>
          5 0 3 1 -1.</_>
        <_>
          6 0 1 1 3.</_></rects>
      <tilted>0</tilted></_>
    <_>
      <rects>
        <_>
          5 0 13 6 -1.</_>
        <_>
          5 3 13 3 2.</_></rects>
      <tilted>0</tilted></_>
    <_>
      <rects>
        <_>
          5 1 3 4 -1.</_>
        <_>
          5 3 3 2 2.</_></rects>
      <tilted>0</tilted></_>
    <_>
      <rects>
        <_>
          5 1 14 6 -1.</_>
        <_>
          5 3 14 2 3.</_></rects>
      <tilted>0</tilted></_>
    <_>
      <rects>
        <_>
          5 3 9 2 -1.</_>
        <_>
          5 4 9 1 2.</_></rects>
      <tilted>0</tilted></_>
    <_>
      <rects>
        <_>
          5 4 2 3 -1.</_>
        <_>
          5 5 2 1 3.</_></rects>
      <tilted>0</tilted></_>
    <_>
      <rects>
        <_>
          5 5 3 1 -1.</_>
        <_>
          6 5 1 1 3.</_></rects>
      <tilted>0</tilted></_>
    <_>
      <rects>
        <_>
          5 5 3 5 -1.</_>
        <_>
          6 5 1 5 3.</_></rects>
      <tilted>0</tilted></_>
    <_>
      <rects>
        <_>
          5 5 3 15 -1.</_>
        <_>
          6 5 1 15 3.</_></rects>
      <tilted>0</tilted></_>
    <_>
      <rects>
        <_>
          5 5 4 3 -1.</_>
        <_>
          5 6 4 1 3.</_></rects>
      <tilted>0</tilted></_>
    <_>
      <rects>
        <_>
          5 6 3 13 -1.</_>
        <_>
          6 6 1 13 3.</_></rects>
      <tilted>0</tilted></_>
    <_>
      <rects>
        <_>
          5 7 3 12 -1.</_>
        <_>
          6 7 1 12 3.</_></rects>
      <tilted>0</tilted></_>
    <_>
      <rects>
        <_>
          5 8 11 2 -1.</_>
        <_>
          5 9 11 1 2.</_></rects>
      <tilted>0</tilted></_>
    <_>
      <rects>
        <_>
          5 8 14 6 -1.</_>
        <_>
          5 10 14 2 3.</_></rects>
      <tilted>0</tilted></_>
    <_>
      <rects>
        <_>
          5 9 3 10 -1.</_>
        <_>
          6 9 1 10 3.</_></rects>
      <tilted>0</tilted></_>
    <_>
      <rects>
        <_>
          5 10 2 2 -1.</_>
        <_>
          5 10 1 1 2.</_>
        <_>
          6 11 1 1 2.</_></rects>
      <tilted>0</tilted></_>
    <_>
      <rects>
        <_>
          5 13 15 6 -1.</_>
        <_>
          5 15 15 2 3.</_></rects>
      <tilted>0</tilted></_>
    <_>
      <rects>
        <_>
          6 0 2 1 -1.</_>
        <_>
          7 0 1 1 2.</_></rects>
      <tilted>0</tilted></_>
    <_>
      <rects>
        <_>
          6 0 3 1 -1.</_>
        <_>
          7 0 1 1 3.</_></rects>
      <tilted>0</tilted></_>
    <_>
      <rects>
        <_>
          6 0 7 4 -1.</_>
        <_>
          6 2 7 2 2.</_></rects>
      <tilted>0</tilted></_>
    <_>
      <rects>
        <_>
          6 0 12 6 -1.</_>
        <_>
          6 3 12 3 2.</_></rects>
      <tilted>0</tilted></_>
    <_>
      <rects>
        <_>
          6 1 13 6 -1.</_>
        <_>
          6 3 13 2 3.</_></rects>
      <tilted>0</tilted></_>
    <_>
      <rects>
        <_>
          6 2 13 18 -1.</_>
        <_>
          6 11 13 9 2.</_></rects>
      <tilted>0</tilted></_>
    <_>
      <rects>
        <_>
          6 3 5 3 -1.</_>
        <_>
          6 4 5 1 3.</_></rects>
      <tilted>0</tilted></_>
    <_>
      <rects>
        <_>
          6 4 2 15 -1.</_>
        <_>
          7 4 1 15 2.</_></rects>
      <tilted>0</tilted></_>
    <_>
      <rects>
        <_>
          6 5 3 5 -1.</_>
        <_>
          7 5 1 5 3.</_></rects>
      <tilted>0</tilted></_>
    <_>
      <rects>
        <_>
          6 5 3 14 -1.</_>
        <_>
          7 5 1 14 3.</_></rects>
      <tilted>0</tilted></_>
    <_>
      <rects>
        <_>
          6 6 3 6 -1.</_>
        <_>
          7 6 1 6 3.</_></rects>
      <tilted>0</tilted></_>
    <_>
      <rects>
        <_>
          6 6 2 12 -1.</_>
        <_>
          7 6 1 12 2.</_></rects>
      <tilted>0</tilted></_>
    <_>
      <rects>
        <_>
          6 6 6 2 -1.</_>
        <_>
          8 6 2 2 3.</_></rects>
      <tilted>0</tilted></_>
    <_>
      <rects>
        <_>
          6 7 3 13 -1.</_>
        <_>
          7 7 1 13 3.</_></rects>
      <tilted>0</tilted></_>
    <_>
      <rects>
        <_>
          6 8 3 6 -1.</_>
        <_>
          7 8 1 6 3.</_></rects>
      <tilted>0</tilted></_>
    <_>
      <rects>
        <_>
          6 8 14 6 -1.</_>
        <_>
          6 10 14 2 3.</_></rects>
      <tilted>0</tilted></_>
    <_>
      <rects>
        <_>
          6 9 3 6 -1.</_>
        <_>
          7 9 1 6 3.</_></rects>
      <tilted>0</tilted></_>
    <_>
      <rects>
        <_>
          6 9 14 3 -1.</_>
        <_>
          6 10 14 1 3.</_></rects>
      <tilted>0</tilted></_>
    <_>
      <rects>
        <_>
          6 11 2 2 -1.</_>
        <_>
          6 11 1 1 2.</_>
        <_>
          7 12 1 1 2.</_></rects>
      <tilted>0</tilted></_>
    <_>
      <rects>
        <_>
          6 11 9 3 -1.</_>
        <_>
          6 12 9 1 3.</_></rects>
      <tilted>0</tilted></_>
    <_>
      <rects>
        <_>
          6 14 3 6 -1.</_>
        <_>
          7 14 1 6 3.</_></rects>
      <tilted>0</tilted></_>
    <_>
      <rects>
        <_>
          6 17 8 2 -1.</_>
        <_>
          6 17 4 1 2.</_>
        <_>
          10 18 4 1 2.</_></rects>
      <tilted>0</tilted></_>
    <_>
      <rects>
        <_>
          7 0 2 1 -1.</_>
        <_>
          8 0 1 1 2.</_></rects>
      <tilted>0</tilted></_>
    <_>
      <rects>
        <_>
          7 0 3 1 -1.</_>
        <_>
          8 0 1 1 3.</_></rects>
      <tilted>0</tilted></_>
    <_>
      <rects>
        <_>
          7 0 8 2 -1.</_>
        <_>
          7 1 8 1 2.</_></rects>
      <tilted>0</tilted></_>
    <_>
      <rects>
        <_>
          7 1 2 6 -1.</_>
        <_>
          7 3 2 2 3.</_></rects>
      <tilted>0</tilted></_>
    <_>
      <rects>
        <_>
          7 2 6 18 -1.</_>
        <_>
          9 2 2 18 3.</_></rects>
      <tilted>0</tilted></_>
    <_>
      <rects>
        <_>
          7 5 6 3 -1.</_>
        <_>
          10 5 3 3 2.</_></rects>
      <tilted>0</tilted></_>
    <_>
      <rects>
        <_>
          7 5 6 8 -1.</_>
        <_>
          7 5 3 4 2.</_>
        <_>
          10 9 3 4 2.</_></rects>
      <tilted>0</tilted></_>
    <_>
      <rects>
        <_>
          7 6 6 6 -1.</_>
        <_>
          7 6 3 3 2.</_>
        <_>
          10 9 3 3 2.</_></rects>
      <tilted>0</tilted></_>
    <_>
      <rects>
        <_>
          7 9 3 8 -1.</_>
        <_>
          8 9 1 8 3.</_></rects>
      <tilted>0</tilted></_>
    <_>
      <rects>
        <_>
          7 10 3 8 -1.</_>
        <_>
          8 10 1 8 3.</_></rects>
      <tilted>0</tilted></_>
    <_>
      <rects>
        <_>
          7 11 6 4 -1.</_>
        <_>
          7 11 3 2 2.</_>
        <_>
          10 13 3 2 2.</_></rects>
      <tilted>0</tilted></_>
    <_>
      <rects>
        <_>
          7 14 9 2 -1.</_>
        <_>
          7 15 9 1 2.</_></rects>
      <tilted>0</tilted></_>
    <_>
      <rects>
        <_>
          8 0 3 1 -1.</_>
        <_>
          9 0 1 1 3.</_></rects>
      <tilted>0</tilted></_>
    <_>
      <rects>
        <_>
          8 0 3 2 -1.</_>
        <_>
          9 0 1 2 3.</_></rects>
      <tilted>0</tilted></_>
    <_>
      <rects>
        <_>
          8 0 11 2 -1.</_>
        <_>
          8 1 11 1 2.</_></rects>
      <tilted>0</tilted></_>
    <_>
      <rects>
        <_>
          8 0 11 6 -1.</_>
        <_>
          8 2 11 2 3.</_></rects>
      <tilted>0</tilted></_>
    <_>
      <rects>
        <_>
          8 0 11 15 -1.</_>
        <_>
          8 5 11 5 3.</_></rects>
      <tilted>0</tilted></_>
    <_>
      <rects>
        <_>
          8 1 5 4 -1.</_>
        <_>
          8 3 5 2 2.</_></rects>
      <tilted>0</tilted></_>
    <_>
      <rects>
        <_>
          8 5 2 13 -1.</_>
        <_>
          9 5 1 13 2.</_></rects>
      <tilted>0</tilted></_>
    <_>
      <rects>
        <_>
          8 5 2 15 -1.</_>
        <_>
          9 5 1 15 2.</_></rects>
      <tilted>0</tilted></_>
    <_>
      <rects>
        <_>
          8 5 8 6 -1.</_>
        <_>
          8 7 8 2 3.</_></rects>
      <tilted>0</tilted></_>
    <_>
      <rects>
        <_>
          8 6 2 2 -1.</_>
        <_>
          8 6 1 1 2.</_>
        <_>
          9 7 1 1 2.</_></rects>
      <tilted>0</tilted></_>
    <_>
      <rects>
        <_>
          8 8 4 10 -1.</_>
        <_>
          8 8 2 5 2.</_>
        <_>
          10 13 2 5 2.</_></rects>
      <tilted>0</tilted></_>
    <_>
      <rects>
        <_>
          8 9 3 9 -1.</_>
        <_>
          9 9 1 9 3.</_></rects>
      <tilted>0</tilted></_>
    <_>
      <rects>
        <_>
          8 9 4 2 -1.</_>
        <_>
          8 9 2 1 2.</_>
        <_>
          10 10 2 1 2.</_></rects>
      <tilted>0</tilted></_>
    <_>
      <rects>
        <_>
          8 12 2 8 -1.</_>
        <_>
          9 12 1 8 2.</_></rects>
      <tilted>0</tilted></_>
    <_>
      <rects>
        <_>
          8 12 11 2 -1.</_>
        <_>
          8 13 11 1 2.</_></rects>
      <tilted>0</tilted></_>
    <_>
      <rects>
        <_>
          9 0 2 4 -1.</_>
        <_>
          9 0 1 2 2.</_>
        <_>
          10 2 1 2 2.</_></rects>
      <tilted>0</tilted></_>
    <_>
      <rects>
        <_>
          9 0 6 1 -1.</_>
        <_>
          11 0 2 1 3.</_></rects>
      <tilted>0</tilted></_>
    <_>
      <rects>
        <_>
          9 0 6 4 -1.</_>
        <_>
          11 0 2 4 3.</_></rects>
      <tilted>0</tilted></_>
    <_>
      <rects>
        <_>
          9 0 6 20 -1.</_>
        <_>
          11 0 2 20 3.</_></rects>
      <tilted>0</tilted></_>
    <_>
      <rects>
        <_>
          9 5 3 7 -1.</_>
        <_>
          10 5 1 7 3.</_></rects>
      <tilted>0</tilted></_>
    <_>
      <rects>
        <_>
          9 5 6 14 -1.</_>
        <_>
          11 5 2 14 3.</_></rects>
      <tilted>0</tilted></_>
    <_>
      <rects>
        <_>
          9 6 3 14 -1.</_>
        <_>
          10 6 1 14 3.</_></rects>
      <tilted>0</tilted></_>
    <_>
      <rects>
        <_>
          9 8 3 12 -1.</_>
        <_>
          10 8 1 12 3.</_></rects>
      <tilted>0</tilted></_>
    <_>
      <rects>
        <_>
          9 9 3 8 -1.</_>
        <_>
          10 9 1 8 3.</_></rects>
      <tilted>0</tilted></_>
    <_>
      <rects>
        <_>
          9 9 10 2 -1.</_>
        <_>
          14 9 5 2 2.</_></rects>
      <tilted>0</tilted></_>
    <_>
      <rects>
        <_>
          9 11 3 8 -1.</_>
        <_>
          10 11 1 8 3.</_></rects>
      <tilted>0</tilted></_>
    <_>
      <rects>
        <_>
          9 12 6 4 -1.</_>
        <_>
          9 14 6 2 2.</_></rects>
      <tilted>0</tilted></_>
    <_>
      <rects>
        <_>
          10 0 3 1 -1.</_>
        <_>
          11 0 1 1 3.</_></rects>
      <tilted>0</tilted></_>
    <_>
      <rects>
        <_>
          10 0 3 12 -1.</_>
        <_>
          11 0 1 12 3.</_></rects>
      <tilted>0</tilted></_>
    <_>
      <rects>
        <_>
          10 1 1 3 -1.</_>
        <_>
          10 2 1 1 3.</_></rects>
      <tilted>0</tilted></_>
    <_>
      <rects>
        <_>
          10 3 3 17 -1.</_>
        <_>
          11 3 1 17 3.</_></rects>
      <tilted>0</tilted></_>
    <_>
      <rects>
        <_>
          10 3 7 6 -1.</_>
        <_>
          10 5 7 2 3.</_></rects>
      <tilted>0</tilted></_>
    <_>
      <rects>
        <_>
          10 4 3 16 -1.</_>
        <_>
          11 4 1 16 3.</_></rects>
      <tilted>0</tilted></_>
    <_>
      <rects>
        <_>
          10 5 2 14 -1.</_>
        <_>
          11 5 1 14 2.</_></rects>
      <tilted>0</tilted></_>
    <_>
      <rects>
        <_>
          10 6 6 8 -1.</_>
        <_>
          10 6 3 4 2.</_>
        <_>
          13 10 3 4 2.</_></rects>
      <tilted>0</tilted></_>
    <_>
      <rects>
        <_>
          10 7 3 10 -1.</_>
        <_>
          11 7 1 10 3.</_></rects>
      <tilted>0</tilted></_>
    <_>
      <rects>
        <_>
          10 8 6 2 -1.</_>
        <_>
          10 8 3 1 2.</_>
        <_>
          13 9 3 1 2.</_></rects>
      <tilted>0</tilted></_>
    <_>
      <rects>
        <_>
          10 8 10 6 -1.</_>
        <_>
          10 8 5 3 2.</_>
        <_>
